digraph Tree {
node [shape=box] ;
0 [label="X[32] <= 0.5\nentropy = 0.798\nsamples = 21815\nvalue = [16547, 5268]"] ;
1 [label="X[3] <= 7073.5\nentropy = 0.351\nsamples = 11803\nvalue = [11024, 779]"] ;
0 -> 1 [labeldistance=2.5, labelangle=45, headlabel="True"] ;
2 [label="X[2] <= 12.5\nentropy = 0.284\nsamples = 11589\nvalue = [11017, 572]"] ;
1 -> 2 ;
3 [label="X[0] <= 25.5\nentropy = 0.165\nsamples = 9348\nvalue = [9121, 227]"] ;
2 -> 3 ;
4 [label="X[96] <= 0.5\nentropy = 0.01\nsamples = 3406\nvalue = [3403, 3]"] ;
3 -> 4 ;
5 [label="X[48] <= 0.5\nentropy = 0.007\nsamples = 3404\nvalue = [3402, 2]"] ;
4 -> 5 ;
6 [label="X[30] <= 0.5\nentropy = 0.004\nsamples = 3359\nvalue = [3358, 1]"] ;
5 -> 6 ;
7 [label="entropy = 0.0\nsamples = 3274\nvalue = [3274, 0]"] ;
6 -> 7 ;
8 [label="entropy = 0.092\nsamples = 85\nvalue = [84, 1]"] ;
6 -> 8 ;
9 [label="entropy = 0.154\nsamples = 45\nvalue = [44, 1]"] ;
5 -> 9 ;
10 [label="entropy = 1.0\nsamples = 2\nvalue = [1, 1]"] ;
4 -> 10 ;
11 [label="X[5] <= 40.5\nentropy = 0.232\nsamples = 5942\nvalue = [5718, 224]"] ;
3 -> 11 ;
12 [label="X[0] <= 38.5\nentropy = 0.156\nsamples = 4600\nvalue = [4496, 104]"] ;
11 -> 12 ;
13 [label="X[31] <= 0.5\nentropy = 0.084\nsamples = 2203\nvalue = [2180, 23]"] ;
12 -> 13 ;
14 [label="X[48] <= 0.5\nentropy = 0.075\nsamples = 2196\nvalue = [2176, 20]"] ;
13 -> 14 ;
15 [label="X[0] <= 28.5\nentropy = 0.063\nsamples = 2152\nvalue = [2136, 16]"] ;
14 -> 15 ;
16 [label="entropy = 0.0\nsamples = 570\nvalue = [570, 0]"] ;
15 -> 16 ;
17 [label="X[45] <= 0.5\nentropy = 0.082\nsamples = 1582\nvalue = [1566, 16]"] ;
15 -> 17 ;
18 [label="X[88] <= 0.5\nentropy = 0.098\nsamples = 1271\nvalue = [1255, 16]"] ;
17 -> 18 ;
19 [label="X[6] <= 0.5\nentropy = 0.093\nsamples = 1270\nvalue = [1255, 15]"] ;
18 -> 19 ;
20 [label="X[64] <= 0.5\nentropy = 0.079\nsamples = 1229\nvalue = [1217, 12]"] ;
19 -> 20 ;
21 [label="X[11] <= 0.5\nentropy = 0.03\nsamples = 653\nvalue = [651, 2]"] ;
20 -> 21 ;
22 [label="X[1] <= 50095.5\nentropy = 0.017\nsamples = 645\nvalue = [644, 1]"] ;
21 -> 22 ;
23 [label="entropy = 0.162\nsamples = 42\nvalue = [41, 1]"] ;
22 -> 23 ;
24 [label="entropy = 0.0\nsamples = 603\nvalue = [603, 0]"] ;
22 -> 24 ;
25 [label="entropy = 0.544\nsamples = 8\nvalue = [7, 1]"] ;
21 -> 25 ;
26 [label="X[3] <= 4718.5\nentropy = 0.126\nsamples = 576\nvalue = [566, 10]"] ;
20 -> 26 ;
27 [label="X[62] <= 0.5\nentropy = 0.116\nsamples = 574\nvalue = [565, 9]"] ;
26 -> 27 ;
28 [label="entropy = 0.0\nsamples = 110\nvalue = [110, 0]"] ;
27 -> 28 ;
29 [label="X[1] <= 185391.5\nentropy = 0.138\nsamples = 464\nvalue = [455, 9]"] ;
27 -> 29 ;
30 [label="X[0] <= 30.5\nentropy = 0.07\nsamples = 240\nvalue = [238, 2]"] ;
29 -> 30 ;
31 [label="entropy = 0.246\nsamples = 49\nvalue = [47, 2]"] ;
30 -> 31 ;
32 [label="entropy = 0.0\nsamples = 191\nvalue = [191, 0]"] ;
30 -> 32 ;
33 [label="X[1] <= 185801.0\nentropy = 0.201\nsamples = 224\nvalue = [217, 7]"] ;
29 -> 33 ;
34 [label="entropy = 0.0\nsamples = 1\nvalue = [0, 1]"] ;
33 -> 34 ;
35 [label="X[0] <= 31.5\nentropy = 0.179\nsamples = 223\nvalue = [217, 6]"] ;
33 -> 35 ;
36 [label="entropy = 0.0\nsamples = 80\nvalue = [80, 0]"] ;
35 -> 36 ;
37 [label="X[19] <= 0.5\nentropy = 0.251\nsamples = 143\nvalue = [137, 6]"] ;
35 -> 37 ;
38 [label="X[1] <= 204856.5\nentropy = 0.221\nsamples = 141\nvalue = [136, 5]"] ;
37 -> 38 ;
39 [label="entropy = 0.0\nsamples = 29\nvalue = [29, 0]"] ;
38 -> 39 ;
40 [label="X[1] <= 213450.5\nentropy = 0.263\nsamples = 112\nvalue = [107, 5]"] ;
38 -> 40 ;
41 [label="entropy = 0.845\nsamples = 11\nvalue = [8, 3]"] ;
40 -> 41 ;
42 [label="X[1] <= 343774.5\nentropy = 0.14\nsamples = 101\nvalue = [99, 2]"] ;
40 -> 42 ;
43 [label="entropy = 0.0\nsamples = 70\nvalue = [70, 0]"] ;
42 -> 43 ;
44 [label="entropy = 0.345\nsamples = 31\nvalue = [29, 2]"] ;
42 -> 44 ;
45 [label="entropy = 1.0\nsamples = 2\nvalue = [1, 1]"] ;
37 -> 45 ;
46 [label="entropy = 1.0\nsamples = 2\nvalue = [1, 1]"] ;
26 -> 46 ;
47 [label="entropy = 0.378\nsamples = 41\nvalue = [38, 3]"] ;
19 -> 47 ;
48 [label="entropy = 0.0\nsamples = 1\nvalue = [0, 1]"] ;
18 -> 48 ;
49 [label="entropy = 0.0\nsamples = 311\nvalue = [311, 0]"] ;
17 -> 49 ;
50 [label="entropy = 0.439\nsamples = 44\nvalue = [40, 4]"] ;
14 -> 50 ;
51 [label="entropy = 0.985\nsamples = 7\nvalue = [4, 3]"] ;
13 -> 51 ;
52 [label="X[64] <= 0.5\nentropy = 0.213\nsamples = 2397\nvalue = [2316, 81]"] ;
12 -> 52 ;
53 [label="X[83] <= 0.5\nentropy = 0.141\nsamples = 1609\nvalue = [1577, 32]"] ;
52 -> 53 ;
54 [label="X[35] <= 0.5\nentropy = 0.137\nsamples = 1608\nvalue = [1577, 31]"] ;
53 -> 54 ;
55 [label="X[4] <= 2232.0\nentropy = 0.15\nsamples = 1442\nvalue = [1411, 31]"] ;
54 -> 55 ;
56 [label="X[22] <= 0.5\nentropy = 0.143\nsamples = 1434\nvalue = [1405, 29]"] ;
55 -> 56 ;
57 [label="X[49] <= 0.5\nentropy = 0.129\nsamples = 1353\nvalue = [1329, 24]"] ;
56 -> 57 ;
58 [label="X[1] <= 198861.0\nentropy = 0.111\nsamples = 1219\nvalue = [1201, 18]"] ;
57 -> 58 ;
59 [label="X[1] <= 197959.5\nentropy = 0.14\nsamples = 810\nvalue = [794, 16]"] ;
58 -> 59 ;
60 [label="X[3] <= 4718.5\nentropy = 0.127\nsamples = 804\nvalue = [790, 14]"] ;
59 -> 60 ;
61 [label="X[50] <= 0.5\nentropy = 0.12\nsamples = 800\nvalue = [787, 13]"] ;
60 -> 61 ;
62 [label="X[41] <= 0.5\nentropy = 0.107\nsamples = 778\nvalue = [767, 11]"] ;
61 -> 62 ;
63 [label="X[53] <= 0.5\nentropy = 0.088\nsamples = 719\nvalue = [711, 8]"] ;
62 -> 63 ;
64 [label="X[15] <= 0.5\nentropy = 0.029\nsamples = 336\nvalue = [335, 1]"] ;
63 -> 64 ;
65 [label="entropy = 0.0\nsamples = 319\nvalue = [319, 0]"] ;
64 -> 65 ;
66 [label="entropy = 0.323\nsamples = 17\nvalue = [16, 1]"] ;
64 -> 66 ;
67 [label="X[48] <= 0.5\nentropy = 0.132\nsamples = 383\nvalue = [376, 7]"] ;
63 -> 67 ;
68 [label="X[40] <= 0.5\nentropy = 0.117\nsamples = 381\nvalue = [375, 6]"] ;
67 -> 68 ;
69 [label="X[5] <= 21.0\nentropy = 0.102\nsamples = 374\nvalue = [369, 5]"] ;
68 -> 69 ;
70 [label="entropy = 0.0\nsamples = 72\nvalue = [72, 0]"] ;
69 -> 70 ;
71 [label="X[5] <= 22.5\nentropy = 0.122\nsamples = 302\nvalue = [297, 5]"] ;
69 -> 71 ;
72 [label="entropy = 1.0\nsamples = 2\nvalue = [1, 1]"] ;
71 -> 72 ;
73 [label="X[5] <= 35.5\nentropy = 0.102\nsamples = 300\nvalue = [296, 4]"] ;
71 -> 73 ;
74 [label="entropy = 0.0\nsamples = 83\nvalue = [83, 0]"] ;
73 -> 74 ;
75 [label="X[5] <= 36.5\nentropy = 0.133\nsamples = 217\nvalue = [213, 4]"] ;
73 -> 75 ;
76 [label="entropy = 0.918\nsamples = 3\nvalue = [2, 1]"] ;
75 -> 76 ;
77 [label="X[0] <= 54.5\nentropy = 0.106\nsamples = 214\nvalue = [211, 3]"] ;
75 -> 77 ;
78 [label="entropy = 0.0\nsamples = 123\nvalue = [123, 0]"] ;
77 -> 78 ;
79 [label="X[25] <= 0.5\nentropy = 0.209\nsamples = 91\nvalue = [88, 3]"] ;
77 -> 79 ;
80 [label="entropy = 0.0\nsamples = 43\nvalue = [43, 0]"] ;
79 -> 80 ;
81 [label="entropy = 0.337\nsamples = 48\nvalue = [45, 3]"] ;
79 -> 81 ;
82 [label="entropy = 0.592\nsamples = 7\nvalue = [6, 1]"] ;
68 -> 82 ;
83 [label="entropy = 1.0\nsamples = 2\nvalue = [1, 1]"] ;
67 -> 83 ;
84 [label="entropy = 0.29\nsamples = 59\nvalue = [56, 3]"] ;
62 -> 84 ;
85 [label="entropy = 0.439\nsamples = 22\nvalue = [20, 2]"] ;
61 -> 85 ;
86 [label="entropy = 0.811\nsamples = 4\nvalue = [3, 1]"] ;
60 -> 86 ;
87 [label="entropy = 0.918\nsamples = 6\nvalue = [4, 2]"] ;
59 -> 87 ;
88 [label="X[1] <= 365366.5\nentropy = 0.045\nsamples = 409\nvalue = [407, 2]"] ;
58 -> 88 ;
89 [label="entropy = 0.0\nsamples = 355\nvalue = [355, 0]"] ;
88 -> 89 ;
90 [label="entropy = 0.229\nsamples = 54\nvalue = [52, 2]"] ;
88 -> 90 ;
91 [label="X[0] <= 57.5\nentropy = 0.264\nsamples = 134\nvalue = [128, 6]"] ;
57 -> 91 ;
92 [label="X[54] <= 0.5\nentropy = 0.087\nsamples = 91\nvalue = [90, 1]"] ;
91 -> 92 ;
93 [label="entropy = 0.0\nsamples = 88\nvalue = [88, 0]"] ;
92 -> 93 ;
94 [label="entropy = 0.918\nsamples = 3\nvalue = [2, 1]"] ;
92 -> 94 ;
95 [label="entropy = 0.519\nsamples = 43\nvalue = [38, 5]"] ;
91 -> 95 ;
96 [label="entropy = 0.334\nsamples = 81\nvalue = [76, 5]"] ;
56 -> 96 ;
97 [label="entropy = 0.811\nsamples = 8\nvalue = [6, 2]"] ;
55 -> 97 ;
98 [label="entropy = 0.0\nsamples = 166\nvalue = [166, 0]"] ;
54 -> 98 ;
99 [label="entropy = 0.0\nsamples = 1\nvalue = [0, 1]"] ;
53 -> 99 ;
100 [label="X[3] <= 4718.5\nentropy = 0.336\nsamples = 788\nvalue = [739, 49]"] ;
52 -> 100 ;
101 [label="X[60] <= 0.5\nentropy = 0.318\nsamples = 782\nvalue = [737, 45]"] ;
100 -> 101 ;
102 [label="X[55] <= 0.5\nentropy = 0.354\nsamples = 674\nvalue = [629, 45]"] ;
101 -> 102 ;
103 [label="X[45] <= 0.5\nentropy = 0.387\nsamples = 594\nvalue = [549, 45]"] ;
102 -> 103 ;
104 [label="X[37] <= 0.5\nentropy = 0.42\nsamples = 529\nvalue = [484, 45]"] ;
103 -> 104 ;
105 [label="X[44] <= 0.5\nentropy = 0.451\nsamples = 477\nvalue = [432, 45]"] ;
104 -> 105 ;
106 [label="X[42] <= 0.5\nentropy = 0.484\nsamples = 430\nvalue = [385, 45]"] ;
105 -> 106 ;
107 [label="X[43] <= 0.5\nentropy = 0.502\nsamples = 406\nvalue = [361, 45]"] ;
106 -> 107 ;
108 [label="X[77] <= 0.5\nentropy = 0.53\nsamples = 366\nvalue = [322, 44]"] ;
107 -> 108 ;
109 [label="X[88] <= 0.5\nentropy = 0.523\nsamples = 365\nvalue = [322, 43]"] ;
108 -> 109 ;
110 [label="X[4] <= 2391.5\nentropy = 0.516\nsamples = 364\nvalue = [322, 42]"] ;
109 -> 110 ;
111 [label="X[86] <= 0.5\nentropy = 0.509\nsamples = 363\nvalue = [322, 41]"] ;
110 -> 111 ;
112 [label="X[5] <= 33.5\nentropy = 0.501\nsamples = 362\nvalue = [322, 40]"] ;
111 -> 112 ;
113 [label="entropy = 0.225\nsamples = 55\nvalue = [53, 2]"] ;
112 -> 113 ;
114 [label="X[0] <= 51.5\nentropy = 0.54\nsamples = 307\nvalue = [269, 38]"] ;
112 -> 114 ;
115 [label="X[36] <= 0.5\nentropy = 0.432\nsamples = 203\nvalue = [185, 18]"] ;
114 -> 115 ;
116 [label="X[48] <= 0.5\nentropy = 0.388\nsamples = 197\nvalue = [182, 15]"] ;
115 -> 116 ;
117 [label="X[25] <= 0.5\nentropy = 0.359\nsamples = 191\nvalue = [178, 13]"] ;
116 -> 117 ;
118 [label="X[0] <= 46.5\nentropy = 0.46\nsamples = 103\nvalue = [93, 10]"] ;
117 -> 118 ;
119 [label="entropy = 0.544\nsamples = 80\nvalue = [70, 10]"] ;
118 -> 119 ;
120 [label="entropy = 0.0\nsamples = 23\nvalue = [23, 0]"] ;
118 -> 120 ;
121 [label="entropy = 0.215\nsamples = 88\nvalue = [85, 3]"] ;
117 -> 121 ;
122 [label="entropy = 0.918\nsamples = 6\nvalue = [4, 2]"] ;
116 -> 122 ;
123 [label="entropy = 1.0\nsamples = 6\nvalue = [3, 3]"] ;
115 -> 123 ;
124 [label="X[2] <= 6.5\nentropy = 0.706\nsamples = 104\nvalue = [84, 20]"] ;
114 -> 124 ;
125 [label="entropy = 0.0\nsamples = 16\nvalue = [16, 0]"] ;
124 -> 125 ;
126 [label="entropy = 0.773\nsamples = 88\nvalue = [68, 20]"] ;
124 -> 126 ;
127 [label="entropy = 0.0\nsamples = 1\nvalue = [0, 1]"] ;
111 -> 127 ;
128 [label="entropy = 0.0\nsamples = 1\nvalue = [0, 1]"] ;
110 -> 128 ;
129 [label="entropy = 0.0\nsamples = 1\nvalue = [0, 1]"] ;
109 -> 129 ;
130 [label="entropy = 0.0\nsamples = 1\nvalue = [0, 1]"] ;
108 -> 130 ;
131 [label="entropy = 0.169\nsamples = 40\nvalue = [39, 1]"] ;
107 -> 131 ;
132 [label="entropy = 0.0\nsamples = 24\nvalue = [24, 0]"] ;
106 -> 132 ;
133 [label="entropy = 0.0\nsamples = 47\nvalue = [47, 0]"] ;
105 -> 133 ;
134 [label="entropy = 0.0\nsamples = 52\nvalue = [52, 0]"] ;
104 -> 134 ;
135 [label="entropy = 0.0\nsamples = 65\nvalue = [65, 0]"] ;
103 -> 135 ;
136 [label="entropy = 0.0\nsamples = 80\nvalue = [80, 0]"] ;
102 -> 136 ;
137 [label="entropy = 0.0\nsamples = 108\nvalue = [108, 0]"] ;
101 -> 137 ;
138 [label="entropy = 0.918\nsamples = 6\nvalue = [2, 4]"] ;
100 -> 138 ;
139 [label="X[0] <= 39.5\nentropy = 0.435\nsamples = 1342\nvalue = [1222, 120]"] ;
11 -> 139 ;
140 [label="X[53] <= 0.5\nentropy = 0.294\nsamples = 753\nvalue = [714, 39]"] ;
139 -> 140 ;
141 [label="X[83] <= 0.5\nentropy = 0.124\nsamples = 294\nvalue = [289, 5]"] ;
140 -> 141 ;
142 [label="X[5] <= 92.0\nentropy = 0.104\nsamples = 293\nvalue = [289, 4]"] ;
141 -> 142 ;
143 [label="X[11] <= 0.5\nentropy = 0.083\nsamples = 289\nvalue = [286, 3]"] ;
142 -> 143 ;
144 [label="X[21] <= 0.5\nentropy = 0.037\nsamples = 258\nvalue = [257, 1]"] ;
143 -> 144 ;
145 [label="entropy = 0.0\nsamples = 242\nvalue = [242, 0]"] ;
144 -> 145 ;
146 [label="entropy = 0.337\nsamples = 16\nvalue = [15, 1]"] ;
144 -> 146 ;
147 [label="entropy = 0.345\nsamples = 31\nvalue = [29, 2]"] ;
143 -> 147 ;
148 [label="entropy = 0.811\nsamples = 4\nvalue = [3, 1]"] ;
142 -> 148 ;
149 [label="entropy = 0.0\nsamples = 1\nvalue = [0, 1]"] ;
141 -> 149 ;
150 [label="X[1] <= 453869.5\nentropy = 0.381\nsamples = 459\nvalue = [425, 34]"] ;
140 -> 150 ;
151 [label="X[1] <= 34046.5\nentropy = 0.355\nsamples = 447\nvalue = [417, 30]"] ;
150 -> 151 ;
152 [label="entropy = 0.831\nsamples = 19\nvalue = [14, 5]"] ;
151 -> 152 ;
153 [label="X[1] <= 92053.0\nentropy = 0.321\nsamples = 428\nvalue = [403, 25]"] ;
151 -> 153 ;
154 [label="entropy = 0.0\nsamples = 52\nvalue = [52, 0]"] ;
153 -> 154 ;
155 [label="X[1] <= 209051.0\nentropy = 0.353\nsamples = 376\nvalue = [351, 25]"] ;
153 -> 155 ;
156 [label="X[20] <= 0.5\nentropy = 0.455\nsamples = 209\nvalue = [189, 20]"] ;
155 -> 156 ;
157 [label="X[4] <= 1999.5\nentropy = 0.428\nsamples = 206\nvalue = [188, 18]"] ;
156 -> 157 ;
158 [label="X[1] <= 93185.0\nentropy = 0.398\nsamples = 203\nvalue = [187, 16]"] ;
157 -> 158 ;
159 [label="entropy = 0.0\nsamples = 1\nvalue = [0, 1]"] ;
158 -> 159 ;
160 [label="X[40] <= 0.5\nentropy = 0.382\nsamples = 202\nvalue = [187, 15]"] ;
158 -> 160 ;
161 [label="X[1] <= 208755.0\nentropy = 0.438\nsamples = 166\nvalue = [151, 15]"] ;
160 -> 161 ;
162 [label="X[51] <= 0.5\nentropy = 0.419\nsamples = 165\nvalue = [151, 14]"] ;
161 -> 162 ;
163 [label="X[35] <= 0.5\nentropy = 0.456\nsamples = 146\nvalue = [132, 14]"] ;
162 -> 163 ;
164 [label="X[63] <= 0.5\nentropy = 0.483\nsamples = 134\nvalue = [120, 14]"] ;
163 -> 164 ;
165 [label="entropy = 0.578\nsamples = 80\nvalue = [69, 11]"] ;
164 -> 165 ;
166 [label="entropy = 0.31\nsamples = 54\nvalue = [51, 3]"] ;
164 -> 166 ;
167 [label="entropy = 0.0\nsamples = 12\nvalue = [12, 0]"] ;
163 -> 167 ;
168 [label="entropy = 0.0\nsamples = 19\nvalue = [19, 0]"] ;
162 -> 168 ;
169 [label="entropy = 0.0\nsamples = 1\nvalue = [0, 1]"] ;
161 -> 169 ;
170 [label="entropy = 0.0\nsamples = 36\nvalue = [36, 0]"] ;
160 -> 170 ;
171 [label="entropy = 0.918\nsamples = 3\nvalue = [1, 2]"] ;
157 -> 171 ;
172 [label="entropy = 0.918\nsamples = 3\nvalue = [1, 2]"] ;
156 -> 172 ;
173 [label="X[1] <= 344990.0\nentropy = 0.194\nsamples = 167\nvalue = [162, 5]"] ;
155 -> 173 ;
174 [label="X[40] <= 0.5\nentropy = 0.063\nsamples = 134\nvalue = [133, 1]"] ;
173 -> 174 ;
175 [label="entropy = 0.0\nsamples = 110\nvalue = [110, 0]"] ;
174 -> 175 ;
176 [label="entropy = 0.25\nsamples = 24\nvalue = [23, 1]"] ;
174 -> 176 ;
177 [label="entropy = 0.533\nsamples = 33\nvalue = [29, 4]"] ;
173 -> 177 ;
178 [label="entropy = 0.918\nsamples = 12\nvalue = [8, 4]"] ;
150 -> 178 ;
179 [label="X[4] <= 2391.5\nentropy = 0.578\nsamples = 589\nvalue = [508, 81]"] ;
139 -> 179 ;
180 [label="X[64] <= 0.5\nentropy = 0.554\nsamples = 583\nvalue = [508, 75]"] ;
179 -> 180 ;
181 [label="X[25] <= 0.5\nentropy = 0.361\nsamples = 277\nvalue = [258, 19]"] ;
180 -> 181 ;
182 [label="X[2] <= 6.5\nentropy = 0.48\nsamples = 164\nvalue = [147, 17]"] ;
181 -> 182 ;
183 [label="entropy = 0.0\nsamples = 24\nvalue = [24, 0]"] ;
182 -> 183 ;
184 [label="X[0] <= 53.5\nentropy = 0.533\nsamples = 140\nvalue = [123, 17]"] ;
182 -> 184 ;
185 [label="X[1] <= 141613.0\nentropy = 0.414\nsamples = 108\nvalue = [99, 9]"] ;
184 -> 185 ;
186 [label="entropy = 0.0\nsamples = 29\nvalue = [29, 0]"] ;
185 -> 186 ;
187 [label="entropy = 0.512\nsamples = 79\nvalue = [70, 9]"] ;
185 -> 187 ;
188 [label="entropy = 0.811\nsamples = 32\nvalue = [24, 8]"] ;
184 -> 188 ;
189 [label="X[31] <= 0.5\nentropy = 0.128\nsamples = 113\nvalue = [111, 2]"] ;
181 -> 189 ;
190 [label="X[50] <= 0.5\nentropy = 0.074\nsamples = 112\nvalue = [111, 1]"] ;
189 -> 190 ;
191 [label="entropy = 0.0\nsamples = 110\nvalue = [110, 0]"] ;
190 -> 191 ;
192 [label="entropy = 1.0\nsamples = 2\nvalue = [1, 1]"] ;
190 -> 192 ;
193 [label="entropy = 0.0\nsamples = 1\nvalue = [0, 1]"] ;
189 -> 193 ;
194 [label="X[34] <= 0.5\nentropy = 0.687\nsamples = 306\nvalue = [250, 56]"] ;
180 -> 194 ;
195 [label="X[2] <= 5.5\nentropy = 0.771\nsamples = 230\nvalue = [178, 52]"] ;
194 -> 195 ;
196 [label="entropy = 0.0\nsamples = 19\nvalue = [19, 0]"] ;
195 -> 196 ;
197 [label="X[1] <= 327596.0\nentropy = 0.806\nsamples = 211\nvalue = [159, 52]"] ;
195 -> 197 ;
198 [label="X[50] <= 0.5\nentropy = 0.75\nsamples = 191\nvalue = [150, 41]"] ;
197 -> 198 ;
199 [label="X[0] <= 40.5\nentropy = 0.734\nsamples = 189\nvalue = [150, 39]"] ;
198 -> 199 ;
200 [label="entropy = 1.0\nsamples = 14\nvalue = [7, 7]"] ;
199 -> 200 ;
201 [label="X[0] <= 56.5\nentropy = 0.686\nsamples = 175\nvalue = [143, 32]"] ;
199 -> 201 ;
202 [label="X[4] <= 2067.0\nentropy = 0.583\nsamples = 136\nvalue = [117, 19]"] ;
201 -> 202 ;
203 [label="X[5] <= 45.5\nentropy = 0.551\nsamples = 133\nvalue = [116, 17]"] ;
202 -> 203 ;
204 [label="entropy = 0.267\nsamples = 44\nvalue = [42, 2]"] ;
203 -> 204 ;
205 [label="entropy = 0.654\nsamples = 89\nvalue = [74, 15]"] ;
203 -> 205 ;
206 [label="entropy = 0.918\nsamples = 3\nvalue = [1, 2]"] ;
202 -> 206 ;
207 [label="entropy = 0.918\nsamples = 39\nvalue = [26, 13]"] ;
201 -> 207 ;
208 [label="entropy = 0.0\nsamples = 2\nvalue = [0, 2]"] ;
198 -> 208 ;
209 [label="entropy = 0.993\nsamples = 20\nvalue = [9, 11]"] ;
197 -> 209 ;
210 [label="entropy = 0.297\nsamples = 76\nvalue = [72, 4]"] ;
194 -> 210 ;
211 [label="entropy = 0.0\nsamples = 6\nvalue = [0, 6]"] ;
179 -> 211 ;
212 [label="X[0] <= 27.5\nentropy = 0.62\nsamples = 2241\nvalue = [1896, 345]"] ;
2 -> 212 ;
213 [label="X[4] <= 2102.5\nentropy = 0.115\nsamples = 645\nvalue = [635, 10]"] ;
212 -> 213 ;
214 [label="X[5] <= 68.0\nentropy = 0.087\nsamples = 640\nvalue = [633, 7]"] ;
213 -> 214 ;
215 [label="X[57] <= 0.5\nentropy = 0.067\nsamples = 631\nvalue = [626, 5]"] ;
214 -> 215 ;
216 [label="X[0] <= 25.5\nentropy = 0.055\nsamples = 630\nvalue = [626, 4]"] ;
215 -> 216 ;
217 [label="entropy = 0.0\nsamples = 406\nvalue = [406, 0]"] ;
216 -> 217 ;
218 [label="X[35] <= 0.5\nentropy = 0.129\nsamples = 224\nvalue = [220, 4]"] ;
216 -> 218 ;
219 [label="X[0] <= 26.5\nentropy = 0.103\nsamples = 222\nvalue = [219, 3]"] ;
218 -> 219 ;
220 [label="X[40] <= 0.5\nentropy = 0.184\nsamples = 107\nvalue = [104, 3]"] ;
219 -> 220 ;
221 [label="X[1] <= 323700.5\nentropy = 0.136\nsamples = 105\nvalue = [103, 2]"] ;
220 -> 221 ;
222 [label="X[38] <= 0.5\nentropy = 0.083\nsamples = 97\nvalue = [96, 1]"] ;
221 -> 222 ;
223 [label="entropy = 0.0\nsamples = 80\nvalue = [80, 0]"] ;
222 -> 223 ;
224 [label="entropy = 0.323\nsamples = 17\nvalue = [16, 1]"] ;
222 -> 224 ;
225 [label="entropy = 0.544\nsamples = 8\nvalue = [7, 1]"] ;
221 -> 225 ;
226 [label="entropy = 1.0\nsamples = 2\nvalue = [1, 1]"] ;
220 -> 226 ;
227 [label="entropy = 0.0\nsamples = 115\nvalue = [115, 0]"] ;
219 -> 227 ;
228 [label="entropy = 1.0\nsamples = 2\nvalue = [1, 1]"] ;
218 -> 228 ;
229 [label="entropy = 0.0\nsamples = 1\nvalue = [0, 1]"] ;
215 -> 229 ;
230 [label="entropy = 0.764\nsamples = 9\nvalue = [7, 2]"] ;
214 -> 230 ;
231 [label="entropy = 0.971\nsamples = 5\nvalue = [2, 3]"] ;
213 -> 231 ;
232 [label="X[5] <= 43.5\nentropy = 0.741\nsamples = 1596\nvalue = [1261, 335]"] ;
212 -> 232 ;
233 [label="X[0] <= 34.5\nentropy = 0.573\nsamples = 988\nvalue = [854, 134]"] ;
232 -> 233 ;
234 [label="X[62] <= 0.5\nentropy = 0.284\nsamples = 304\nvalue = [289, 15]"] ;
233 -> 234 ;
235 [label="entropy = 0.0\nsamples = 63\nvalue = [63, 0]"] ;
234 -> 235 ;
236 [label="X[4] <= 1486.0\nentropy = 0.336\nsamples = 241\nvalue = [226, 15]"] ;
234 -> 236 ;
237 [label="X[100] <= 0.5\nentropy = 0.294\nsamples = 232\nvalue = [220, 12]"] ;
236 -> 237 ;
238 [label="X[1] <= 174034.5\nentropy = 0.276\nsamples = 231\nvalue = [220, 11]"] ;
237 -> 238 ;
239 [label="X[63] <= 0.5\nentropy = 0.384\nsamples = 120\nvalue = [111, 9]"] ;
238 -> 239 ;
240 [label="entropy = 0.555\nsamples = 62\nvalue = [54, 8]"] ;
239 -> 240 ;
241 [label="entropy = 0.126\nsamples = 58\nvalue = [57, 1]"] ;
239 -> 241 ;
242 [label="X[26] <= 0.5\nentropy = 0.13\nsamples = 111\nvalue = [109, 2]"] ;
238 -> 242 ;
243 [label="entropy = 0.0\nsamples = 98\nvalue = [98, 0]"] ;
242 -> 243 ;
244 [label="entropy = 0.619\nsamples = 13\nvalue = [11, 2]"] ;
242 -> 244 ;
245 [label="entropy = 0.0\nsamples = 1\nvalue = [0, 1]"] ;
237 -> 245 ;
246 [label="entropy = 0.918\nsamples = 9\nvalue = [6, 3]"] ;
236 -> 246 ;
247 [label="X[4] <= 2232.0\nentropy = 0.667\nsamples = 684\nvalue = [565, 119]"] ;
233 -> 247 ;
248 [label="X[2] <= 14.5\nentropy = 0.64\nsamples = 672\nvalue = [563, 109]"] ;
247 -> 248 ;
249 [label="X[3] <= 4668.5\nentropy = 0.592\nsamples = 616\nvalue = [528, 88]"] ;
248 -> 249 ;
250 [label="X[41] <= 0.5\nentropy = 0.575\nsamples = 608\nvalue = [525, 83]"] ;
249 -> 250 ;
251 [label="X[47] <= 0.5\nentropy = 0.511\nsamples = 502\nvalue = [445, 57]"] ;
250 -> 251 ;
252 [label="X[49] <= 0.5\nentropy = 0.369\nsamples = 254\nvalue = [236, 18]"] ;
251 -> 252 ;
253 [label="X[0] <= 44.5\nentropy = 0.271\nsamples = 215\nvalue = [205, 10]"] ;
252 -> 253 ;
254 [label="entropy = 0.0\nsamples = 111\nvalue = [111, 0]"] ;
253 -> 254 ;
255 [label="X[56] <= 0.5\nentropy = 0.457\nsamples = 104\nvalue = [94, 10]"] ;
253 -> 255 ;
256 [label="entropy = 0.567\nsamples = 75\nvalue = [65, 10]"] ;
255 -> 256 ;
257 [label="entropy = 0.0\nsamples = 29\nvalue = [29, 0]"] ;
255 -> 257 ;
258 [label="entropy = 0.732\nsamples = 39\nvalue = [31, 8]"] ;
252 -> 258 ;
259 [label="X[5] <= 27.5\nentropy = 0.628\nsamples = 248\nvalue = [209, 39]"] ;
251 -> 259 ;
260 [label="entropy = 0.0\nsamples = 29\nvalue = [29, 0]"] ;
259 -> 260 ;
261 [label="X[0] <= 47.5\nentropy = 0.676\nsamples = 219\nvalue = [180, 39]"] ;
259 -> 261 ;
262 [label="X[9] <= 0.5\nentropy = 0.544\nsamples = 152\nvalue = [133, 19]"] ;
261 -> 262 ;
263 [label="entropy = 0.233\nsamples = 79\nvalue = [76, 3]"] ;
262 -> 263 ;
264 [label="entropy = 0.759\nsamples = 73\nvalue = [57, 16]"] ;
262 -> 264 ;
265 [label="entropy = 0.879\nsamples = 67\nvalue = [47, 20]"] ;
261 -> 265 ;
266 [label="X[5] <= 39.0\nentropy = 0.804\nsamples = 106\nvalue = [80, 26]"] ;
250 -> 266 ;
267 [label="entropy = 0.0\nsamples = 19\nvalue = [19, 0]"] ;
266 -> 267 ;
268 [label="entropy = 0.88\nsamples = 87\nvalue = [61, 26]"] ;
266 -> 268 ;
269 [label="entropy = 0.954\nsamples = 8\nvalue = [3, 5]"] ;
249 -> 269 ;
270 [label="entropy = 0.954\nsamples = 56\nvalue = [35, 21]"] ;
248 -> 270 ;
271 [label="entropy = 0.65\nsamples = 12\nvalue = [2, 10]"] ;
247 -> 271 ;
272 [label="X[4] <= 2391.5\nentropy = 0.916\nsamples = 608\nvalue = [407, 201]"] ;
232 -> 272 ;
273 [label="X[2] <= 14.5\nentropy = 0.901\nsamples = 596\nvalue = [407, 189]"] ;
272 -> 273 ;
274 [label="X[41] <= 0.5\nentropy = 0.87\nsamples = 529\nvalue = [375, 154]"] ;
273 -> 274 ;
275 [label="X[1] <= 84223.5\nentropy = 0.799\nsamples = 392\nvalue = [297, 95]"] ;
274 -> 275 ;
276 [label="entropy = 0.391\nsamples = 65\nvalue = [60, 5]"] ;
275 -> 276 ;
277 [label="X[0] <= 52.5\nentropy = 0.849\nsamples = 327\nvalue = [237, 90]"] ;
275 -> 277 ;
278 [label="X[64] <= 0.5\nentropy = 0.89\nsamples = 280\nvalue = [194, 86]"] ;
277 -> 278 ;
279 [label="X[1] <= 409631.5\nentropy = 0.754\nsamples = 120\nvalue = [94, 26]"] ;
278 -> 279 ;
280 [label="X[5] <= 47.0\nentropy = 0.729\nsamples = 118\nvalue = [94, 24]"] ;
279 -> 280 ;
281 [label="entropy = 0.378\nsamples = 41\nvalue = [38, 3]"] ;
280 -> 281 ;
282 [label="entropy = 0.845\nsamples = 77\nvalue = [56, 21]"] ;
280 -> 282 ;
283 [label="entropy = 0.0\nsamples = 2\nvalue = [0, 2]"] ;
279 -> 283 ;
284 [label="X[0] <= 42.5\nentropy = 0.954\nsamples = 160\nvalue = [100, 60]"] ;
278 -> 284 ;
285 [label="X[1] <= 88379.0\nentropy = 0.86\nsamples = 120\nvalue = [86, 34]"] ;
284 -> 285 ;
286 [label="entropy = 0.0\nsamples = 2\nvalue = [0, 2]"] ;
285 -> 286 ;
287 [label="X[12] <= 0.5\nentropy = 0.843\nsamples = 118\nvalue = [86, 32]"] ;
285 -> 287 ;
288 [label="X[3] <= 1101.0\nentropy = 0.866\nsamples = 111\nvalue = [79, 32]"] ;
287 -> 288 ;
289 [label="X[7] <= 0.5\nentropy = 0.884\nsamples = 106\nvalue = [74, 32]"] ;
288 -> 289 ;
290 [label="X[47] <= 0.5\nentropy = 0.911\nsamples = 95\nvalue = [64, 31]"] ;
289 -> 290 ;
291 [label="entropy = 0.829\nsamples = 65\nvalue = [48, 17]"] ;
290 -> 291 ;
292 [label="entropy = 0.997\nsamples = 30\nvalue = [16, 14]"] ;
290 -> 292 ;
293 [label="entropy = 0.439\nsamples = 11\nvalue = [10, 1]"] ;
289 -> 293 ;
294 [label="entropy = 0.0\nsamples = 5\nvalue = [5, 0]"] ;
288 -> 294 ;
295 [label="entropy = 0.0\nsamples = 7\nvalue = [7, 0]"] ;
287 -> 295 ;
296 [label="entropy = 0.934\nsamples = 40\nvalue = [14, 26]"] ;
284 -> 296 ;
297 [label="entropy = 0.42\nsamples = 47\nvalue = [43, 4]"] ;
277 -> 297 ;
298 [label="X[0] <= 48.5\nentropy = 0.986\nsamples = 137\nvalue = [78, 59]"] ;
274 -> 298 ;
299 [label="X[5] <= 82.5\nentropy = 0.936\nsamples = 108\nvalue = [70, 38]"] ;
298 -> 299 ;
300 [label="X[1] <= 572687.5\nentropy = 0.918\nsamples = 105\nvalue = [70, 35]"] ;
299 -> 300 ;
301 [label="X[60] <= 0.5\nentropy = 0.905\nsamples = 103\nvalue = [70, 33]"] ;
300 -> 301 ;
302 [label="X[56] <= 0.5\nentropy = 0.925\nsamples = 97\nvalue = [64, 33]"] ;
301 -> 302 ;
303 [label="entropy = 0.87\nsamples = 79\nvalue = [56, 23]"] ;
302 -> 303 ;
304 [label="entropy = 0.991\nsamples = 18\nvalue = [8, 10]"] ;
302 -> 304 ;
305 [label="entropy = 0.0\nsamples = 6\nvalue = [6, 0]"] ;
301 -> 305 ;
306 [label="entropy = 0.0\nsamples = 2\nvalue = [0, 2]"] ;
300 -> 306 ;
307 [label="entropy = 0.0\nsamples = 3\nvalue = [0, 3]"] ;
299 -> 307 ;
308 [label="entropy = 0.85\nsamples = 29\nvalue = [8, 21]"] ;
298 -> 308 ;
309 [label="entropy = 0.999\nsamples = 67\nvalue = [32, 35]"] ;
273 -> 309 ;
310 [label="entropy = 0.0\nsamples = 12\nvalue = [0, 12]"] ;
272 -> 310 ;
311 [label="X[5] <= 35.5\nentropy = 0.208\nsamples = 214\nvalue = [7, 207]"] ;
1 -> 311 ;
312 [label="entropy = 0.792\nsamples = 21\nvalue = [5, 16]"] ;
311 -> 312 ;
313 [label="X[1] <= 23981.0\nentropy = 0.083\nsamples = 193\nvalue = [2, 191]"] ;
311 -> 313 ;
314 [label="entropy = 0.0\nsamples = 1\nvalue = [1, 0]"] ;
313 -> 314 ;
315 [label="X[3] <= 30961.5\nentropy = 0.047\nsamples = 192\nvalue = [1, 191]"] ;
313 -> 315 ;
316 [label="entropy = 0.0\nsamples = 181\nvalue = [0, 181]"] ;
315 -> 316 ;
317 [label="entropy = 0.439\nsamples = 11\nvalue = [1, 10]"] ;
315 -> 317 ;
318 [label="X[3] <= 5095.5\nentropy = 0.992\nsamples = 10012\nvalue = [5523, 4489]"] ;
0 -> 318 [labeldistance=2.5, labelangle=-45, headlabel="False"] ;
319 [label="X[2] <= 12.5\nentropy = 0.972\nsamples = 9204\nvalue = [5513, 3691]"] ;
318 -> 319 ;
320 [label="X[2] <= 8.5\nentropy = 0.88\nsamples = 6655\nvalue = [4663, 1992]"] ;
319 -> 320 ;
321 [label="X[0] <= 36.5\nentropy = 0.476\nsamples = 1106\nvalue = [993, 113]"] ;
320 -> 321 ;
322 [label="X[50] <= 0.5\nentropy = 0.242\nsamples = 326\nvalue = [313, 13]"] ;
321 -> 322 ;
323 [label="X[102] <= 0.5\nentropy = 0.214\nsamples = 323\nvalue = [312, 11]"] ;
322 -> 323 ;
324 [label="X[5] <= 58.0\nentropy = 0.2\nsamples = 322\nvalue = [312, 10]"] ;
323 -> 324 ;
325 [label="X[1] <= 161668.5\nentropy = 0.16\nsamples = 299\nvalue = [292, 7]"] ;
324 -> 325 ;
326 [label="X[1] <= 160180.0\nentropy = 0.282\nsamples = 102\nvalue = [97, 5]"] ;
325 -> 326 ;
327 [label="X[0] <= 28.5\nentropy = 0.194\nsamples = 100\nvalue = [97, 3]"] ;
326 -> 327 ;
328 [label="entropy = 0.0\nsamples = 37\nvalue = [37, 0]"] ;
327 -> 328 ;
329 [label="entropy = 0.276\nsamples = 63\nvalue = [60, 3]"] ;
327 -> 329 ;
330 [label="entropy = 0.0\nsamples = 2\nvalue = [0, 2]"] ;
326 -> 330 ;
331 [label="X[38] <= 0.5\nentropy = 0.082\nsamples = 197\nvalue = [195, 2]"] ;
325 -> 331 ;
332 [label="X[0] <= 35.5\nentropy = 0.047\nsamples = 193\nvalue = [192, 1]"] ;
331 -> 332 ;
333 [label="entropy = 0.0\nsamples = 184\nvalue = [184, 0]"] ;
332 -> 333 ;
334 [label="entropy = 0.503\nsamples = 9\nvalue = [8, 1]"] ;
332 -> 334 ;
335 [label="entropy = 0.811\nsamples = 4\nvalue = [3, 1]"] ;
331 -> 335 ;
336 [label="entropy = 0.559\nsamples = 23\nvalue = [20, 3]"] ;
324 -> 336 ;
337 [label="entropy = 0.0\nsamples = 1\nvalue = [0, 1]"] ;
323 -> 337 ;
338 [label="entropy = 0.918\nsamples = 3\nvalue = [1, 2]"] ;
322 -> 338 ;
339 [label="X[5] <= 21.5\nentropy = 0.552\nsamples = 780\nvalue = [680, 100]"] ;
321 -> 339 ;
340 [label="entropy = 0.0\nsamples = 65\nvalue = [65, 0]"] ;
339 -> 340 ;
341 [label="X[4] <= 1779.5\nentropy = 0.584\nsamples = 715\nvalue = [615, 100]"] ;
339 -> 341 ;
342 [label="X[2] <= 5.5\nentropy = 0.561\nsamples = 701\nvalue = [609, 92]"] ;
341 -> 342 ;
343 [label="X[5] <= 49.5\nentropy = 0.443\nsamples = 392\nvalue = [356, 36]"] ;
342 -> 343 ;
344 [label="X[10] <= 0.5\nentropy = 0.349\nsamples = 321\nvalue = [300, 21]"] ;
343 -> 344 ;
345 [label="X[41] <= 0.5\nentropy = 0.316\nsamples = 315\nvalue = [297, 18]"] ;
344 -> 345 ;
346 [label="X[105] <= 0.5\nentropy = 0.283\nsamples = 305\nvalue = [290, 15]"] ;
345 -> 346 ;
347 [label="X[0] <= 56.5\nentropy = 0.269\nsamples = 304\nvalue = [290, 14]"] ;
346 -> 347 ;
348 [label="X[104] <= 0.5\nentropy = 0.154\nsamples = 180\nvalue = [176, 4]"] ;
347 -> 348 ;
349 [label="X[1] <= 440312.5\nentropy = 0.123\nsamples = 178\nvalue = [175, 3]"] ;
348 -> 349 ;
350 [label="X[1] <= 55467.0\nentropy = 0.091\nsamples = 174\nvalue = [172, 2]"] ;
349 -> 350 ;
351 [label="entropy = 0.65\nsamples = 6\nvalue = [5, 1]"] ;
350 -> 351 ;
352 [label="X[57] <= 0.5\nentropy = 0.053\nsamples = 168\nvalue = [167, 1]"] ;
350 -> 352 ;
353 [label="entropy = 0.0\nsamples = 150\nvalue = [150, 0]"] ;
352 -> 353 ;
354 [label="entropy = 0.31\nsamples = 18\nvalue = [17, 1]"] ;
352 -> 354 ;
355 [label="entropy = 0.811\nsamples = 4\nvalue = [3, 1]"] ;
349 -> 355 ;
356 [label="entropy = 1.0\nsamples = 2\nvalue = [1, 1]"] ;
348 -> 356 ;
357 [label="X[49] <= 0.5\nentropy = 0.404\nsamples = 124\nvalue = [114, 10]"] ;
347 -> 357 ;
358 [label="X[1] <= 524278.5\nentropy = 0.353\nsamples = 120\nvalue = [112, 8]"] ;
357 -> 358 ;
359 [label="X[1] <= 34649.0\nentropy = 0.323\nsamples = 119\nvalue = [112, 7]"] ;
358 -> 359 ;
360 [label="entropy = 0.971\nsamples = 5\nvalue = [3, 2]"] ;
359 -> 360 ;
361 [label="X[1] <= 105589.0\nentropy = 0.26\nsamples = 114\nvalue = [109, 5]"] ;
359 -> 361 ;
362 [label="entropy = 0.0\nsamples = 25\nvalue = [25, 0]"] ;
361 -> 362 ;
363 [label="entropy = 0.312\nsamples = 89\nvalue = [84, 5]"] ;
361 -> 363 ;
364 [label="entropy = 0.0\nsamples = 1\nvalue = [0, 1]"] ;
358 -> 364 ;
365 [label="entropy = 1.0\nsamples = 4\nvalue = [2, 2]"] ;
357 -> 365 ;
366 [label="entropy = 0.0\nsamples = 1\nvalue = [0, 1]"] ;
346 -> 366 ;
367 [label="entropy = 0.881\nsamples = 10\nvalue = [7, 3]"] ;
345 -> 367 ;
368 [label="entropy = 1.0\nsamples = 6\nvalue = [3, 3]"] ;
344 -> 368 ;
369 [label="entropy = 0.744\nsamples = 71\nvalue = [56, 15]"] ;
343 -> 369 ;
370 [label="X[0] <= 65.5\nentropy = 0.683\nsamples = 309\nvalue = [253, 56]"] ;
342 -> 370 ;
371 [label="X[9] <= 0.5\nentropy = 0.712\nsamples = 287\nvalue = [231, 56]"] ;
370 -> 371 ;
372 [label="entropy = 0.459\nsamples = 62\nvalue = [56, 6]"] ;
371 -> 372 ;
373 [label="X[16] <= 0.5\nentropy = 0.764\nsamples = 225\nvalue = [175, 50]"] ;
371 -> 373 ;
374 [label="X[49] <= 0.5\nentropy = 0.716\nsamples = 193\nvalue = [155, 38]"] ;
373 -> 374 ;
375 [label="X[1] <= 364406.5\nentropy = 0.735\nsamples = 184\nvalue = [146, 38]"] ;
374 -> 375 ;
376 [label="X[1] <= 198700.5\nentropy = 0.706\nsamples = 177\nvalue = [143, 34]"] ;
375 -> 376 ;
377 [label="X[1] <= 197218.0\nentropy = 0.785\nsamples = 124\nvalue = [95, 29]"] ;
376 -> 377 ;
378 [label="X[0] <= 45.5\nentropy = 0.751\nsamples = 121\nvalue = [95, 26]"] ;
377 -> 378 ;
379 [label="entropy = 0.461\nsamples = 41\nvalue = [37, 4]"] ;
378 -> 379 ;
380 [label="entropy = 0.849\nsamples = 80\nvalue = [58, 22]"] ;
378 -> 380 ;
381 [label="entropy = 0.0\nsamples = 3\nvalue = [0, 3]"] ;
377 -> 381 ;
382 [label="entropy = 0.451\nsamples = 53\nvalue = [48, 5]"] ;
376 -> 382 ;
383 [label="entropy = 0.985\nsamples = 7\nvalue = [3, 4]"] ;
375 -> 383 ;
384 [label="entropy = 0.0\nsamples = 9\nvalue = [9, 0]"] ;
374 -> 384 ;
385 [label="entropy = 0.954\nsamples = 32\nvalue = [20, 12]"] ;
373 -> 385 ;
386 [label="entropy = 0.0\nsamples = 22\nvalue = [22, 0]"] ;
370 -> 386 ;
387 [label="entropy = 0.985\nsamples = 14\nvalue = [6, 8]"] ;
341 -> 387 ;
388 [label="X[0] <= 35.5\nentropy = 0.923\nsamples = 5549\nvalue = [3670, 1879]"] ;
320 -> 388 ;
389 [label="X[0] <= 24.5\nentropy = 0.761\nsamples = 1887\nvalue = [1471, 416]"] ;
388 -> 389 ;
390 [label="X[5] <= 45.5\nentropy = 0.305\nsamples = 239\nvalue = [226, 13]"] ;
389 -> 390 ;
391 [label="X[1] <= 532050.0\nentropy = 0.141\nsamples = 200\nvalue = [196, 4]"] ;
390 -> 391 ;
392 [label="X[3] <= 4164.0\nentropy = 0.113\nsamples = 199\nvalue = [196, 3]"] ;
391 -> 392 ;
393 [label="X[51] <= 0.5\nentropy = 0.081\nsamples = 198\nvalue = [196, 2]"] ;
392 -> 393 ;
394 [label="X[44] <= 0.5\nentropy = 0.047\nsamples = 190\nvalue = [189, 1]"] ;
393 -> 394 ;
395 [label="entropy = 0.0\nsamples = 164\nvalue = [164, 0]"] ;
394 -> 395 ;
396 [label="entropy = 0.235\nsamples = 26\nvalue = [25, 1]"] ;
394 -> 396 ;
397 [label="entropy = 0.544\nsamples = 8\nvalue = [7, 1]"] ;
393 -> 397 ;
398 [label="entropy = 0.0\nsamples = 1\nvalue = [0, 1]"] ;
392 -> 398 ;
399 [label="entropy = 0.0\nsamples = 1\nvalue = [0, 1]"] ;
391 -> 399 ;
400 [label="entropy = 0.779\nsamples = 39\nvalue = [30, 9]"] ;
390 -> 400 ;
401 [label="X[4] <= 1794.0\nentropy = 0.803\nsamples = 1648\nvalue = [1245, 403]"] ;
389 -> 401 ;
402 [label="X[5] <= 48.5\nentropy = 0.783\nsamples = 1601\nvalue = [1228, 373]"] ;
401 -> 402 ;
403 [label="X[25] <= 0.5\nentropy = 0.724\nsamples = 1195\nvalue = [955, 240]"] ;
402 -> 403 ;
404 [label="X[1] <= 173899.0\nentropy = 0.818\nsamples = 523\nvalue = [390, 133]"] ;
403 -> 404 ;
405 [label="X[1] <= 29378.5\nentropy = 0.66\nsamples = 240\nvalue = [199, 41]"] ;
404 -> 405 ;
406 [label="entropy = 0.954\nsamples = 8\nvalue = [3, 5]"] ;
405 -> 406 ;
407 [label="X[1] <= 75072.0\nentropy = 0.623\nsamples = 232\nvalue = [196, 36]"] ;
405 -> 407 ;
408 [label="entropy = 0.33\nsamples = 66\nvalue = [62, 4]"] ;
407 -> 408 ;
409 [label="X[43] <= 0.5\nentropy = 0.707\nsamples = 166\nvalue = [134, 32]"] ;
407 -> 409 ;
410 [label="X[57] <= 0.5\nentropy = 0.742\nsamples = 152\nvalue = [120, 32]"] ;
409 -> 410 ;
411 [label="X[0] <= 34.5\nentropy = 0.66\nsamples = 117\nvalue = [97, 20]"] ;
410 -> 411 ;
412 [label="X[2] <= 11.5\nentropy = 0.702\nsamples = 105\nvalue = [85, 20]"] ;
411 -> 412 ;
413 [label="X[9] <= 0.5\nentropy = 0.742\nsamples = 95\nvalue = [75, 20]"] ;
412 -> 413 ;
414 [label="entropy = 0.297\nsamples = 19\nvalue = [18, 1]"] ;
413 -> 414 ;
415 [label="entropy = 0.811\nsamples = 76\nvalue = [57, 19]"] ;
413 -> 415 ;
416 [label="entropy = 0.0\nsamples = 10\nvalue = [10, 0]"] ;
412 -> 416 ;
417 [label="entropy = 0.0\nsamples = 12\nvalue = [12, 0]"] ;
411 -> 417 ;
418 [label="entropy = 0.928\nsamples = 35\nvalue = [23, 12]"] ;
410 -> 418 ;
419 [label="entropy = 0.0\nsamples = 14\nvalue = [14, 0]"] ;
409 -> 419 ;
420 [label="X[5] <= 22.0\nentropy = 0.91\nsamples = 283\nvalue = [191, 92]"] ;
404 -> 420 ;
421 [label="entropy = 0.0\nsamples = 10\nvalue = [10, 0]"] ;
420 -> 421 ;
422 [label="X[90] <= 0.5\nentropy = 0.922\nsamples = 273\nvalue = [181, 92]"] ;
420 -> 422 ;
423 [label="X[4] <= 1532.0\nentropy = 0.932\nsamples = 265\nvalue = [173, 92]"] ;
422 -> 423 ;
424 [label="X[1] <= 228153.0\nentropy = 0.939\nsamples = 259\nvalue = [167, 92]"] ;
423 -> 424 ;
425 [label="X[1] <= 221686.5\nentropy = 0.983\nsamples = 118\nvalue = [68, 50]"] ;
424 -> 425 ;
426 [label="X[0] <= 29.5\nentropy = 0.965\nsamples = 110\nvalue = [67, 43]"] ;
425 -> 426 ;
427 [label="entropy = 0.837\nsamples = 45\nvalue = [33, 12]"] ;
426 -> 427 ;
428 [label="entropy = 0.998\nsamples = 65\nvalue = [34, 31]"] ;
426 -> 428 ;
429 [label="entropy = 0.544\nsamples = 8\nvalue = [1, 7]"] ;
425 -> 429 ;
430 [label="X[1] <= 318865.5\nentropy = 0.879\nsamples = 141\nvalue = [99, 42]"] ;
424 -> 430 ;
431 [label="entropy = 0.717\nsamples = 76\nvalue = [61, 15]"] ;
430 -> 431 ;
432 [label="entropy = 0.979\nsamples = 65\nvalue = [38, 27]"] ;
430 -> 432 ;
433 [label="entropy = 0.0\nsamples = 6\nvalue = [6, 0]"] ;
423 -> 433 ;
434 [label="entropy = 0.0\nsamples = 8\nvalue = [8, 0]"] ;
422 -> 434 ;
435 [label="X[60] <= 0.5\nentropy = 0.632\nsamples = 672\nvalue = [565, 107]"] ;
403 -> 435 ;
436 [label="X[0] <= 28.5\nentropy = 0.663\nsamples = 615\nvalue = [509, 106]"] ;
435 -> 436 ;
437 [label="X[1] <= 279340.0\nentropy = 0.503\nsamples = 180\nvalue = [160, 20]"] ;
436 -> 437 ;
438 [label="X[48] <= 0.5\nentropy = 0.562\nsamples = 152\nvalue = [132, 20]"] ;
437 -> 438 ;
439 [label="X[1] <= 277634.0\nentropy = 0.519\nsamples = 146\nvalue = [129, 17]"] ;
438 -> 439 ;
440 [label="X[37] <= 0.5\nentropy = 0.501\nsamples = 145\nvalue = [129, 16]"] ;
439 -> 440 ;
441 [label="X[1] <= 160869.0\nentropy = 0.482\nsamples = 144\nvalue = [129, 15]"] ;
440 -> 441 ;
442 [label="entropy = 0.614\nsamples = 66\nvalue = [56, 10]"] ;
441 -> 442 ;
443 [label="entropy = 0.344\nsamples = 78\nvalue = [73, 5]"] ;
441 -> 443 ;
444 [label="entropy = 0.0\nsamples = 1\nvalue = [0, 1]"] ;
440 -> 444 ;
445 [label="entropy = 0.0\nsamples = 1\nvalue = [0, 1]"] ;
439 -> 445 ;
446 [label="entropy = 1.0\nsamples = 6\nvalue = [3, 3]"] ;
438 -> 446 ;
447 [label="entropy = 0.0\nsamples = 28\nvalue = [28, 0]"] ;
437 -> 447 ;
448 [label="X[1] <= 94138.0\nentropy = 0.717\nsamples = 435\nvalue = [349, 86]"] ;
436 -> 448 ;
449 [label="entropy = 0.396\nsamples = 64\nvalue = [59, 5]"] ;
448 -> 449 ;
450 [label="X[1] <= 94939.0\nentropy = 0.757\nsamples = 371\nvalue = [290, 81]"] ;
448 -> 450 ;
451 [label="entropy = 0.0\nsamples = 2\nvalue = [0, 2]"] ;
450 -> 451 ;
452 [label="X[6] <= 0.5\nentropy = 0.749\nsamples = 369\nvalue = [290, 79]"] ;
450 -> 452 ;
453 [label="X[41] <= 0.5\nentropy = 0.735\nsamples = 363\nvalue = [288, 75]"] ;
452 -> 453 ;
454 [label="X[1] <= 347554.0\nentropy = 0.708\nsamples = 342\nvalue = [276, 66]"] ;
453 -> 454 ;
455 [label="X[1] <= 107267.5\nentropy = 0.734\nsamples = 315\nvalue = [250, 65]"] ;
454 -> 455 ;
456 [label="entropy = 0.0\nsamples = 9\nvalue = [9, 0]"] ;
455 -> 456 ;
457 [label="X[48] <= 0.5\nentropy = 0.746\nsamples = 306\nvalue = [241, 65]"] ;
455 -> 457 ;
458 [label="X[5] <= 17.0\nentropy = 0.725\nsamples = 293\nvalue = [234, 59]"] ;
457 -> 458 ;
459 [label="entropy = 0.971\nsamples = 5\nvalue = [2, 3]"] ;
458 -> 459 ;
460 [label="X[5] <= 39.0\nentropy = 0.711\nsamples = 288\nvalue = [232, 56]"] ;
458 -> 460 ;
461 [label="entropy = 0.422\nsamples = 35\nvalue = [32, 3]"] ;
460 -> 461 ;
462 [label="X[105] <= 0.5\nentropy = 0.74\nsamples = 253\nvalue = [200, 53]"] ;
460 -> 462 ;
463 [label="X[45] <= 0.5\nentropy = 0.734\nsamples = 252\nvalue = [200, 52]"] ;
462 -> 463 ;
464 [label="X[57] <= 0.5\nentropy = 0.754\nsamples = 240\nvalue = [188, 52]"] ;
463 -> 464 ;
465 [label="X[38] <= 0.5\nentropy = 0.72\nsamples = 221\nvalue = [177, 44]"] ;
464 -> 465 ;
466 [label="X[3] <= 3120.0\nentropy = 0.737\nsamples = 212\nvalue = [168, 44]"] ;
465 -> 466 ;
467 [label="X[12] <= 0.5\nentropy = 0.752\nsamples = 204\nvalue = [160, 44]"] ;
466 -> 467 ;
468 [label="X[51] <= 0.5\nentropy = 0.73\nsamples = 196\nvalue = [156, 40]"] ;
467 -> 468 ;
469 [label="X[1] <= 114865.5\nentropy = 0.767\nsamples = 170\nvalue = [132, 38]"] ;
468 -> 469 ;
470 [label="entropy = 0.991\nsamples = 9\nvalue = [4, 5]"] ;
469 -> 470 ;
471 [label="X[1] <= 124907.0\nentropy = 0.732\nsamples = 161\nvalue = [128, 33]"] ;
469 -> 471 ;
472 [label="entropy = 0.0\nsamples = 9\nvalue = [9, 0]"] ;
471 -> 472 ;
473 [label="X[103] <= 0.5\nentropy = 0.755\nsamples = 152\nvalue = [119, 33]"] ;
471 -> 473 ;
474 [label="entropy = 0.0\nsamples = 9\nvalue = [9, 0]"] ;
473 -> 474 ;
475 [label="X[7] <= 0.5\nentropy = 0.779\nsamples = 143\nvalue = [110, 33]"] ;
473 -> 475 ;
476 [label="X[1] <= 125809.0\nentropy = 0.77\nsamples = 142\nvalue = [110, 32]"] ;
475 -> 476 ;
477 [label="entropy = 0.0\nsamples = 1\nvalue = [0, 1]"] ;
476 -> 477 ;
478 [label="X[1] <= 343419.0\nentropy = 0.76\nsamples = 141\nvalue = [110, 31]"] ;
476 -> 478 ;
479 [label="X[1] <= 306148.5\nentropy = 0.75\nsamples = 140\nvalue = [110, 30]"] ;
478 -> 479 ;
480 [label="X[1] <= 149616.5\nentropy = 0.77\nsamples = 133\nvalue = [103, 30]"] ;
479 -> 480 ;
481 [label="entropy = 0.439\nsamples = 22\nvalue = [20, 2]"] ;
480 -> 481 ;
482 [label="X[1] <= 163999.5\nentropy = 0.815\nsamples = 111\nvalue = [83, 28]"] ;
480 -> 482 ;
483 [label="entropy = 1.0\nsamples = 16\nvalue = [8, 8]"] ;
482 -> 483 ;
484 [label="X[1] <= 183336.5\nentropy = 0.742\nsamples = 95\nvalue = [75, 20]"] ;
482 -> 484 ;
485 [label="entropy = 0.0\nsamples = 23\nvalue = [23, 0]"] ;
484 -> 485 ;
486 [label="entropy = 0.852\nsamples = 72\nvalue = [52, 20]"] ;
484 -> 486 ;
487 [label="entropy = 0.0\nsamples = 7\nvalue = [7, 0]"] ;
479 -> 487 ;
488 [label="entropy = 0.0\nsamples = 1\nvalue = [0, 1]"] ;
478 -> 488 ;
489 [label="entropy = 0.0\nsamples = 1\nvalue = [0, 1]"] ;
475 -> 489 ;
490 [label="entropy = 0.391\nsamples = 26\nvalue = [24, 2]"] ;
468 -> 490 ;
491 [label="entropy = 1.0\nsamples = 8\nvalue = [4, 4]"] ;
467 -> 491 ;
492 [label="entropy = 0.0\nsamples = 8\nvalue = [8, 0]"] ;
466 -> 492 ;
493 [label="entropy = 0.0\nsamples = 9\nvalue = [9, 0]"] ;
465 -> 493 ;
494 [label="entropy = 0.982\nsamples = 19\nvalue = [11, 8]"] ;
464 -> 494 ;
495 [label="entropy = 0.0\nsamples = 12\nvalue = [12, 0]"] ;
463 -> 495 ;
496 [label="entropy = 0.0\nsamples = 1\nvalue = [0, 1]"] ;
462 -> 496 ;
497 [label="entropy = 0.996\nsamples = 13\nvalue = [7, 6]"] ;
457 -> 497 ;
498 [label="entropy = 0.229\nsamples = 27\nvalue = [26, 1]"] ;
454 -> 498 ;
499 [label="entropy = 0.985\nsamples = 21\nvalue = [12, 9]"] ;
453 -> 499 ;
500 [label="entropy = 0.918\nsamples = 6\nvalue = [2, 4]"] ;
452 -> 500 ;
501 [label="entropy = 0.127\nsamples = 57\nvalue = [56, 1]"] ;
435 -> 501 ;
502 [label="X[0] <= 29.5\nentropy = 0.912\nsamples = 406\nvalue = [273, 133]"] ;
402 -> 502 ;
503 [label="X[0] <= 25.5\nentropy = 0.761\nsamples = 127\nvalue = [99, 28]"] ;
502 -> 503 ;
504 [label="entropy = 0.994\nsamples = 11\nvalue = [5, 6]"] ;
503 -> 504 ;
505 [label="X[42] <= 0.5\nentropy = 0.701\nsamples = 116\nvalue = [94, 22]"] ;
503 -> 505 ;
506 [label="X[11] <= 0.5\nentropy = 0.754\nsamples = 97\nvalue = [76, 21]"] ;
505 -> 506 ;
507 [label="entropy = 0.68\nsamples = 89\nvalue = [73, 16]"] ;
506 -> 507 ;
508 [label="entropy = 0.954\nsamples = 8\nvalue = [3, 5]"] ;
506 -> 508 ;
509 [label="entropy = 0.297\nsamples = 19\nvalue = [18, 1]"] ;
505 -> 509 ;
510 [label="X[1] <= 88699.5\nentropy = 0.955\nsamples = 279\nvalue = [174, 105]"] ;
502 -> 510 ;
511 [label="entropy = 0.768\nsamples = 49\nvalue = [38, 11]"] ;
510 -> 511 ;
512 [label="X[50] <= 0.5\nentropy = 0.976\nsamples = 230\nvalue = [136, 94]"] ;
510 -> 512 ;
513 [label="X[4] <= 836.0\nentropy = 0.971\nsamples = 227\nvalue = [136, 91]"] ;
512 -> 513 ;
514 [label="X[53] <= 0.5\nentropy = 0.975\nsamples = 223\nvalue = [132, 91]"] ;
513 -> 514 ;
515 [label="X[11] <= 0.5\nentropy = 0.973\nsamples = 221\nvalue = [132, 89]"] ;
514 -> 515 ;
516 [label="X[5] <= 72.5\nentropy = 0.988\nsamples = 174\nvalue = [98, 76]"] ;
515 -> 516 ;
517 [label="X[1] <= 93475.0\nentropy = 0.982\nsamples = 169\nvalue = [98, 71]"] ;
516 -> 517 ;
518 [label="entropy = 0.0\nsamples = 3\nvalue = [0, 3]"] ;
517 -> 518 ;
519 [label="X[41] <= 0.5\nentropy = 0.976\nsamples = 166\nvalue = [98, 68]"] ;
517 -> 519 ;
520 [label="X[1] <= 241670.0\nentropy = 0.953\nsamples = 134\nvalue = [84, 50]"] ;
519 -> 520 ;
521 [label="X[22] <= 0.5\nentropy = 0.991\nsamples = 90\nvalue = [50, 40]"] ;
520 -> 521 ;
522 [label="entropy = 0.98\nsamples = 84\nvalue = [49, 35]"] ;
521 -> 522 ;
523 [label="entropy = 0.65\nsamples = 6\nvalue = [1, 5]"] ;
521 -> 523 ;
524 [label="entropy = 0.773\nsamples = 44\nvalue = [34, 10]"] ;
520 -> 524 ;
525 [label="entropy = 0.989\nsamples = 32\nvalue = [14, 18]"] ;
519 -> 525 ;
526 [label="entropy = 0.0\nsamples = 5\nvalue = [0, 5]"] ;
516 -> 526 ;
527 [label="entropy = 0.851\nsamples = 47\nvalue = [34, 13]"] ;
515 -> 527 ;
528 [label="entropy = 0.0\nsamples = 2\nvalue = [0, 2]"] ;
514 -> 528 ;
529 [label="entropy = 0.0\nsamples = 4\nvalue = [4, 0]"] ;
513 -> 529 ;
530 [label="entropy = 0.0\nsamples = 3\nvalue = [0, 3]"] ;
512 -> 530 ;
531 [label="entropy = 0.944\nsamples = 47\nvalue = [17, 30]"] ;
401 -> 531 ;
532 [label="X[4] <= 1846.0\nentropy = 0.971\nsamples = 3662\nvalue = [2199, 1463]"] ;
388 -> 532 ;
533 [label="X[5] <= 34.5\nentropy = 0.958\nsamples = 3485\nvalue = [2163, 1322]"] ;
532 -> 533 ;
534 [label="X[57] <= 0.5\nentropy = 0.614\nsamples = 376\nvalue = [319, 57]"] ;
533 -> 534 ;
535 [label="X[2] <= 9.5\nentropy = 0.496\nsamples = 285\nvalue = [254, 31]"] ;
534 -> 535 ;
536 [label="X[0] <= 64.5\nentropy = 0.343\nsamples = 172\nvalue = [161, 11]"] ;
535 -> 536 ;
537 [label="X[50] <= 0.5\nentropy = 0.461\nsamples = 113\nvalue = [102, 11]"] ;
536 -> 537 ;
538 [label="X[48] <= 0.5\nentropy = 0.409\nsamples = 110\nvalue = [101, 9]"] ;
537 -> 538 ;
539 [label="X[10] <= 0.5\nentropy = 0.378\nsamples = 109\nvalue = [101, 8]"] ;
538 -> 539 ;
540 [label="X[1] <= 209792.5\nentropy = 0.32\nsamples = 103\nvalue = [97, 6]"] ;
539 -> 540 ;
541 [label="entropy = 0.41\nsamples = 73\nvalue = [67, 6]"] ;
540 -> 541 ;
542 [label="entropy = 0.0\nsamples = 30\nvalue = [30, 0]"] ;
540 -> 542 ;
543 [label="entropy = 0.918\nsamples = 6\nvalue = [4, 2]"] ;
539 -> 543 ;
544 [label="entropy = 0.0\nsamples = 1\nvalue = [0, 1]"] ;
538 -> 544 ;
545 [label="entropy = 0.918\nsamples = 3\nvalue = [1, 2]"] ;
537 -> 545 ;
546 [label="entropy = 0.0\nsamples = 59\nvalue = [59, 0]"] ;
536 -> 546 ;
547 [label="X[0] <= 36.5\nentropy = 0.673\nsamples = 113\nvalue = [93, 20]"] ;
535 -> 547 ;
548 [label="entropy = 0.0\nsamples = 1\nvalue = [0, 1]"] ;
547 -> 548 ;
549 [label="X[0] <= 41.5\nentropy = 0.657\nsamples = 112\nvalue = [93, 19]"] ;
547 -> 549 ;
550 [label="entropy = 0.0\nsamples = 14\nvalue = [14, 0]"] ;
549 -> 550 ;
551 [label="X[5] <= 2.5\nentropy = 0.71\nsamples = 98\nvalue = [79, 19]"] ;
549 -> 551 ;
552 [label="entropy = 0.0\nsamples = 1\nvalue = [0, 1]"] ;
551 -> 552 ;
553 [label="X[49] <= 0.5\nentropy = 0.692\nsamples = 97\nvalue = [79, 18]"] ;
551 -> 553 ;
554 [label="entropy = 0.622\nsamples = 84\nvalue = [71, 13]"] ;
553 -> 554 ;
555 [label="entropy = 0.961\nsamples = 13\nvalue = [8, 5]"] ;
553 -> 555 ;
556 [label="X[2] <= 10.5\nentropy = 0.863\nsamples = 91\nvalue = [65, 26]"] ;
534 -> 556 ;
557 [label="entropy = 0.772\nsamples = 75\nvalue = [58, 17]"] ;
556 -> 557 ;
558 [label="entropy = 0.989\nsamples = 16\nvalue = [7, 9]"] ;
556 -> 558 ;
559 [label="X[11] <= 0.5\nentropy = 0.975\nsamples = 3109\nvalue = [1844, 1265]"] ;
533 -> 559 ;
560 [label="X[41] <= 0.5\nentropy = 0.986\nsamples = 2729\nvalue = [1555, 1174]"] ;
559 -> 560 ;
561 [label="X[2] <= 9.5\nentropy = 0.971\nsamples = 2360\nvalue = [1414, 946]"] ;
560 -> 561 ;
562 [label="X[5] <= 41.5\nentropy = 0.935\nsamples = 1369\nvalue = [888, 481]"] ;
561 -> 562 ;
563 [label="X[6] <= 0.5\nentropy = 0.902\nsamples = 961\nvalue = [656, 305]"] ;
562 -> 563 ;
564 [label="X[45] <= 0.5\nentropy = 0.885\nsamples = 921\nvalue = [642, 279]"] ;
563 -> 564 ;
565 [label="X[1] <= 490953.0\nentropy = 0.9\nsamples = 846\nvalue = [579, 267]"] ;
564 -> 565 ;
566 [label="X[42] <= 0.5\nentropy = 0.893\nsamples = 838\nvalue = [578, 260]"] ;
565 -> 566 ;
567 [label="X[3] <= 4699.5\nentropy = 0.899\nsamples = 822\nvalue = [563, 259]"] ;
566 -> 567 ;
568 [label="X[3] <= 4225.0\nentropy = 0.902\nsamples = 814\nvalue = [555, 259]"] ;
567 -> 568 ;
569 [label="X[3] <= 3120.0\nentropy = 0.898\nsamples = 808\nvalue = [554, 254]"] ;
568 -> 569 ;
570 [label="X[3] <= 2994.0\nentropy = 0.906\nsamples = 791\nvalue = [537, 254]"] ;
569 -> 570 ;
571 [label="X[57] <= 0.5\nentropy = 0.902\nsamples = 787\nvalue = [537, 250]"] ;
570 -> 571 ;
572 [label="X[0] <= 47.5\nentropy = 0.888\nsamples = 711\nvalue = [494, 217]"] ;
571 -> 572 ;
573 [label="X[37] <= 0.5\nentropy = 0.836\nsamples = 357\nvalue = [262, 95]"] ;
572 -> 573 ;
574 [label="X[69] <= 0.5\nentropy = 0.847\nsamples = 347\nvalue = [252, 95]"] ;
573 -> 574 ;
575 [label="X[103] <= 0.5\nentropy = 0.841\nsamples = 345\nvalue = [252, 93]"] ;
574 -> 575 ;
576 [label="entropy = 0.0\nsamples = 15\nvalue = [15, 0]"] ;
575 -> 576 ;
577 [label="X[12] <= 0.5\nentropy = 0.858\nsamples = 330\nvalue = [237, 93]"] ;
575 -> 577 ;
578 [label="X[1] <= 32461.5\nentropy = 0.87\nsamples = 316\nvalue = [224, 92]"] ;
577 -> 578 ;
579 [label="entropy = 0.0\nsamples = 5\nvalue = [5, 0]"] ;
578 -> 579 ;
580 [label="X[5] <= 35.5\nentropy = 0.876\nsamples = 311\nvalue = [219, 92]"] ;
578 -> 580 ;
581 [label="entropy = 0.414\nsamples = 12\nvalue = [11, 1]"] ;
580 -> 581 ;
582 [label="X[43] <= 0.5\nentropy = 0.887\nsamples = 299\nvalue = [208, 91]"] ;
580 -> 582 ;
583 [label="X[1] <= 363608.5\nentropy = 0.9\nsamples = 275\nvalue = [188, 87]"] ;
582 -> 583 ;
584 [label="X[0] <= 39.5\nentropy = 0.887\nsamples = 266\nvalue = [185, 81]"] ;
583 -> 584 ;
585 [label="entropy = 0.952\nsamples = 86\nvalue = [54, 32]"] ;
584 -> 585 ;
586 [label="X[40] <= 0.5\nentropy = 0.845\nsamples = 180\nvalue = [131, 49]"] ;
584 -> 586 ;
587 [label="X[1] <= 58157.5\nentropy = 0.73\nsamples = 103\nvalue = [82, 21]"] ;
586 -> 587 ;
588 [label="entropy = 0.0\nsamples = 5\nvalue = [5, 0]"] ;
587 -> 588 ;
589 [label="X[1] <= 66185.0\nentropy = 0.75\nsamples = 98\nvalue = [77, 21]"] ;
587 -> 589 ;
590 [label="entropy = 0.0\nsamples = 1\nvalue = [0, 1]"] ;
589 -> 590 ;
591 [label="X[1] <= 94968.5\nentropy = 0.734\nsamples = 97\nvalue = [77, 20]"] ;
589 -> 591 ;
592 [label="entropy = 0.0\nsamples = 5\nvalue = [5, 0]"] ;
591 -> 592 ;
593 [label="X[1] <= 99969.5\nentropy = 0.755\nsamples = 92\nvalue = [72, 20]"] ;
591 -> 593 ;
594 [label="entropy = 0.0\nsamples = 1\nvalue = [0, 1]"] ;
593 -> 594 ;
595 [label="X[0] <= 40.5\nentropy = 0.739\nsamples = 91\nvalue = [72, 19]"] ;
593 -> 595 ;
596 [label="entropy = 0.94\nsamples = 14\nvalue = [9, 5]"] ;
595 -> 596 ;
597 [label="entropy = 0.684\nsamples = 77\nvalue = [63, 14]"] ;
595 -> 597 ;
598 [label="entropy = 0.946\nsamples = 77\nvalue = [49, 28]"] ;
586 -> 598 ;
599 [label="entropy = 0.918\nsamples = 9\nvalue = [3, 6]"] ;
583 -> 599 ;
600 [label="entropy = 0.65\nsamples = 24\nvalue = [20, 4]"] ;
582 -> 600 ;
601 [label="entropy = 0.371\nsamples = 14\nvalue = [13, 1]"] ;
577 -> 601 ;
602 [label="entropy = 0.0\nsamples = 2\nvalue = [0, 2]"] ;
574 -> 602 ;
603 [label="entropy = 0.0\nsamples = 10\nvalue = [10, 0]"] ;
573 -> 603 ;
604 [label="X[1] <= 402925.0\nentropy = 0.929\nsamples = 354\nvalue = [232, 122]"] ;
572 -> 604 ;
605 [label="X[0] <= 59.5\nentropy = 0.935\nsamples = 347\nvalue = [225, 122]"] ;
604 -> 605 ;
606 [label="X[1] <= 385516.5\nentropy = 0.966\nsamples = 248\nvalue = [151, 97]"] ;
605 -> 606 ;
607 [label="X[99] <= 0.5\nentropy = 0.962\nsamples = 246\nvalue = [151, 95]"] ;
606 -> 607 ;
608 [label="X[1] <= 98663.0\nentropy = 0.959\nsamples = 244\nvalue = [151, 93]"] ;
607 -> 608 ;
609 [label="entropy = 0.848\nsamples = 51\nvalue = [37, 14]"] ;
608 -> 609 ;
610 [label="X[47] <= 0.5\nentropy = 0.976\nsamples = 193\nvalue = [114, 79]"] ;
608 -> 610 ;
611 [label="X[1] <= 101365.5\nentropy = 0.971\nsamples = 190\nvalue = [114, 76]"] ;
610 -> 611 ;
612 [label="entropy = 0.0\nsamples = 2\nvalue = [0, 2]"] ;
611 -> 612 ;
613 [label="X[1] <= 103303.5\nentropy = 0.967\nsamples = 188\nvalue = [114, 74]"] ;
611 -> 613 ;
614 [label="entropy = 0.0\nsamples = 3\nvalue = [3, 0]"] ;
613 -> 614 ;
615 [label="X[1] <= 104937.5\nentropy = 0.971\nsamples = 185\nvalue = [111, 74]"] ;
613 -> 615 ;
616 [label="entropy = 0.0\nsamples = 2\nvalue = [0, 2]"] ;
615 -> 616 ;
617 [label="X[1] <= 108674.5\nentropy = 0.967\nsamples = 183\nvalue = [111, 72]"] ;
615 -> 617 ;
618 [label="entropy = 0.0\nsamples = 3\nvalue = [3, 0]"] ;
617 -> 618 ;
619 [label="X[1] <= 109905.0\nentropy = 0.971\nsamples = 180\nvalue = [108, 72]"] ;
617 -> 619 ;
620 [label="entropy = 0.0\nsamples = 3\nvalue = [0, 3]"] ;
619 -> 620 ;
621 [label="X[1] <= 121184.0\nentropy = 0.965\nsamples = 177\nvalue = [108, 69]"] ;
619 -> 621 ;
622 [label="entropy = 0.0\nsamples = 6\nvalue = [6, 0]"] ;
621 -> 622 ;
623 [label="X[1] <= 123552.5\nentropy = 0.973\nsamples = 171\nvalue = [102, 69]"] ;
621 -> 623 ;
624 [label="entropy = 0.0\nsamples = 3\nvalue = [0, 3]"] ;
623 -> 624 ;
625 [label="X[1] <= 242421.5\nentropy = 0.967\nsamples = 168\nvalue = [102, 66]"] ;
623 -> 625 ;
626 [label="X[60] <= 0.5\nentropy = 0.985\nsamples = 126\nvalue = [72, 54]"] ;
625 -> 626 ;
627 [label="X[1] <= 239287.0\nentropy = 0.976\nsamples = 120\nvalue = [71, 49]"] ;
626 -> 627 ;
628 [label="X[12] <= 0.5\nentropy = 0.97\nsamples = 118\nvalue = [71, 47]"] ;
627 -> 628 ;
629 [label="X[73] <= 0.5\nentropy = 0.976\nsamples = 115\nvalue = [68, 47]"] ;
628 -> 629 ;
630 [label="X[103] <= 0.5\nentropy = 0.973\nsamples = 114\nvalue = [68, 46]"] ;
629 -> 630 ;
631 [label="entropy = 0.0\nsamples = 4\nvalue = [4, 0]"] ;
630 -> 631 ;
632 [label="X[1] <= 148210.0\nentropy = 0.981\nsamples = 110\nvalue = [64, 46]"] ;
630 -> 632 ;
633 [label="entropy = 0.985\nsamples = 21\nvalue = [9, 12]"] ;
632 -> 633 ;
634 [label="entropy = 0.959\nsamples = 89\nvalue = [55, 34]"] ;
632 -> 634 ;
635 [label="entropy = 0.0\nsamples = 1\nvalue = [0, 1]"] ;
629 -> 635 ;
636 [label="entropy = 0.0\nsamples = 3\nvalue = [3, 0]"] ;
628 -> 636 ;
637 [label="entropy = 0.0\nsamples = 2\nvalue = [0, 2]"] ;
627 -> 637 ;
638 [label="entropy = 0.65\nsamples = 6\nvalue = [1, 5]"] ;
626 -> 638 ;
639 [label="entropy = 0.863\nsamples = 42\nvalue = [30, 12]"] ;
625 -> 639 ;
640 [label="entropy = 0.0\nsamples = 3\nvalue = [0, 3]"] ;
610 -> 640 ;
641 [label="entropy = 0.0\nsamples = 2\nvalue = [0, 2]"] ;
607 -> 641 ;
642 [label="entropy = 0.0\nsamples = 2\nvalue = [0, 2]"] ;
606 -> 642 ;
643 [label="X[47] <= 0.5\nentropy = 0.815\nsamples = 99\nvalue = [74, 25]"] ;
605 -> 643 ;
644 [label="X[66] <= 0.5\nentropy = 0.777\nsamples = 96\nvalue = [74, 22]"] ;
643 -> 644 ;
645 [label="X[0] <= 64.5\nentropy = 0.747\nsamples = 94\nvalue = [74, 20]"] ;
644 -> 645 ;
646 [label="entropy = 0.833\nsamples = 72\nvalue = [53, 19]"] ;
645 -> 646 ;
647 [label="entropy = 0.267\nsamples = 22\nvalue = [21, 1]"] ;
645 -> 647 ;
648 [label="entropy = 0.0\nsamples = 2\nvalue = [0, 2]"] ;
644 -> 648 ;
649 [label="entropy = 0.0\nsamples = 3\nvalue = [0, 3]"] ;
643 -> 649 ;
650 [label="entropy = 0.0\nsamples = 7\nvalue = [7, 0]"] ;
604 -> 650 ;
651 [label="entropy = 0.987\nsamples = 76\nvalue = [43, 33]"] ;
571 -> 651 ;
652 [label="entropy = 0.0\nsamples = 4\nvalue = [0, 4]"] ;
570 -> 652 ;
653 [label="entropy = 0.0\nsamples = 17\nvalue = [17, 0]"] ;
569 -> 653 ;
654 [label="entropy = 0.65\nsamples = 6\nvalue = [1, 5]"] ;
568 -> 654 ;
655 [label="entropy = 0.0\nsamples = 8\nvalue = [8, 0]"] ;
567 -> 655 ;
656 [label="entropy = 0.337\nsamples = 16\nvalue = [15, 1]"] ;
566 -> 656 ;
657 [label="entropy = 0.544\nsamples = 8\nvalue = [1, 7]"] ;
565 -> 657 ;
658 [label="entropy = 0.634\nsamples = 75\nvalue = [63, 12]"] ;
564 -> 658 ;
659 [label="entropy = 0.934\nsamples = 40\nvalue = [14, 26]"] ;
563 -> 659 ;
660 [label="X[0] <= 43.5\nentropy = 0.986\nsamples = 408\nvalue = [232, 176]"] ;
562 -> 660 ;
661 [label="X[58] <= 0.5\nentropy = 0.912\nsamples = 174\nvalue = [117, 57]"] ;
660 -> 661 ;
662 [label="X[5] <= 47.0\nentropy = 0.92\nsamples = 170\nvalue = [113, 57]"] ;
661 -> 662 ;
663 [label="entropy = 0.797\nsamples = 58\nvalue = [44, 14]"] ;
662 -> 663 ;
664 [label="X[1] <= 36663.0\nentropy = 0.961\nsamples = 112\nvalue = [69, 43]"] ;
662 -> 664 ;
665 [label="entropy = 0.0\nsamples = 6\nvalue = [6, 0]"] ;
664 -> 665 ;
666 [label="X[47] <= 0.5\nentropy = 0.974\nsamples = 106\nvalue = [63, 43]"] ;
664 -> 666 ;
667 [label="X[1] <= 206634.0\nentropy = 0.967\nsamples = 104\nvalue = [63, 41]"] ;
666 -> 667 ;
668 [label="entropy = 0.935\nsamples = 77\nvalue = [50, 27]"] ;
667 -> 668 ;
669 [label="entropy = 0.999\nsamples = 27\nvalue = [13, 14]"] ;
667 -> 669 ;
670 [label="entropy = 0.0\nsamples = 2\nvalue = [0, 2]"] ;
666 -> 670 ;
671 [label="entropy = 0.0\nsamples = 4\nvalue = [4, 0]"] ;
661 -> 671 ;
672 [label="X[52] <= 0.5\nentropy = 1.0\nsamples = 234\nvalue = [115, 119]"] ;
660 -> 672 ;
673 [label="entropy = 0.0\nsamples = 8\nvalue = [8, 0]"] ;
672 -> 673 ;
674 [label="X[1] <= 54481.0\nentropy = 0.998\nsamples = 226\nvalue = [107, 119]"] ;
672 -> 674 ;
675 [label="entropy = 0.773\nsamples = 22\nvalue = [17, 5]"] ;
674 -> 675 ;
676 [label="X[4] <= 1556.5\nentropy = 0.99\nsamples = 204\nvalue = [90, 114]"] ;
674 -> 676 ;
677 [label="X[0] <= 53.5\nentropy = 0.986\nsamples = 200\nvalue = [86, 114]"] ;
676 -> 677 ;
678 [label="X[3] <= 3583.5\nentropy = 0.949\nsamples = 133\nvalue = [49, 84]"] ;
677 -> 678 ;
679 [label="X[1] <= 106973.5\nentropy = 0.931\nsamples = 127\nvalue = [44, 83]"] ;
678 -> 679 ;
680 [label="entropy = 0.971\nsamples = 15\nvalue = [9, 6]"] ;
679 -> 680 ;
681 [label="X[1] <= 161901.5\nentropy = 0.896\nsamples = 112\nvalue = [35, 77]"] ;
679 -> 681 ;
682 [label="entropy = 0.65\nsamples = 36\nvalue = [6, 30]"] ;
681 -> 682 ;
683 [label="entropy = 0.959\nsamples = 76\nvalue = [29, 47]"] ;
681 -> 683 ;
684 [label="entropy = 0.65\nsamples = 6\nvalue = [5, 1]"] ;
678 -> 684 ;
685 [label="entropy = 0.992\nsamples = 67\nvalue = [37, 30]"] ;
677 -> 685 ;
686 [label="entropy = 0.0\nsamples = 4\nvalue = [4, 0]"] ;
676 -> 686 ;
687 [label="X[50] <= 0.5\nentropy = 0.997\nsamples = 991\nvalue = [526, 465]"] ;
561 -> 687 ;
688 [label="X[45] <= 0.5\nentropy = 0.993\nsamples = 914\nvalue = [501, 413]"] ;
687 -> 688 ;
689 [label="X[43] <= 0.5\nentropy = 0.996\nsamples = 875\nvalue = [471, 404]"] ;
688 -> 689 ;
690 [label="X[44] <= 0.5\nentropy = 0.997\nsamples = 856\nvalue = [455, 401]"] ;
689 -> 690 ;
691 [label="X[51] <= 0.5\nentropy = 0.999\nsamples = 790\nvalue = [409, 381]"] ;
690 -> 691 ;
692 [label="X[42] <= 0.5\nentropy = 1.0\nsamples = 718\nvalue = [360, 358]"] ;
691 -> 692 ;
693 [label="X[4] <= 1532.0\nentropy = 1.0\nsamples = 697\nvalue = [343, 354]"] ;
692 -> 693 ;
694 [label="X[1] <= 167082.0\nentropy = 0.999\nsamples = 686\nvalue = [333, 353]"] ;
693 -> 694 ;
695 [label="X[10] <= 0.5\nentropy = 0.994\nsamples = 308\nvalue = [168, 140]"] ;
694 -> 695 ;
696 [label="X[66] <= 0.5\nentropy = 0.987\nsamples = 289\nvalue = [164, 125]"] ;
695 -> 696 ;
697 [label="X[1] <= 166200.5\nentropy = 0.984\nsamples = 286\nvalue = [164, 122]"] ;
696 -> 697 ;
698 [label="X[1] <= 61538.5\nentropy = 0.987\nsamples = 282\nvalue = [160, 122]"] ;
697 -> 698 ;
699 [label="entropy = 0.908\nsamples = 65\nvalue = [44, 21]"] ;
698 -> 699 ;
700 [label="X[5] <= 37.5\nentropy = 0.997\nsamples = 217\nvalue = [116, 101]"] ;
698 -> 700 ;
701 [label="entropy = 0.469\nsamples = 10\nvalue = [9, 1]"] ;
700 -> 701 ;
702 [label="X[40] <= 0.5\nentropy = 0.999\nsamples = 207\nvalue = [107, 100]"] ;
700 -> 702 ;
703 [label="X[1] <= 162189.0\nentropy = 0.995\nsamples = 129\nvalue = [59, 70]"] ;
702 -> 703 ;
704 [label="X[0] <= 39.5\nentropy = 0.999\nsamples = 123\nvalue = [59, 64]"] ;
703 -> 704 ;
705 [label="entropy = 0.742\nsamples = 19\nvalue = [15, 4]"] ;
704 -> 705 ;
706 [label="X[1] <= 114541.5\nentropy = 0.983\nsamples = 104\nvalue = [44, 60]"] ;
704 -> 706 ;
707 [label="entropy = 0.995\nsamples = 46\nvalue = [25, 21]"] ;
706 -> 707 ;
708 [label="entropy = 0.912\nsamples = 58\nvalue = [19, 39]"] ;
706 -> 708 ;
709 [label="entropy = 0.0\nsamples = 6\nvalue = [0, 6]"] ;
703 -> 709 ;
710 [label="entropy = 0.961\nsamples = 78\nvalue = [48, 30]"] ;
702 -> 710 ;
711 [label="entropy = 0.0\nsamples = 4\nvalue = [4, 0]"] ;
697 -> 711 ;
712 [label="entropy = 0.0\nsamples = 3\nvalue = [0, 3]"] ;
696 -> 712 ;
713 [label="entropy = 0.742\nsamples = 19\nvalue = [4, 15]"] ;
695 -> 713 ;
714 [label="X[5] <= 43.5\nentropy = 0.988\nsamples = 378\nvalue = [165, 213]"] ;
694 -> 714 ;
715 [label="X[5] <= 41.5\nentropy = 0.999\nsamples = 251\nvalue = [122, 129]"] ;
714 -> 715 ;
716 [label="X[1] <= 332541.0\nentropy = 0.998\nsamples = 246\nvalue = [117, 129]"] ;
715 -> 716 ;
717 [label="X[1] <= 171250.5\nentropy = 0.999\nsamples = 202\nvalue = [104, 98]"] ;
716 -> 717 ;
718 [label="entropy = 0.65\nsamples = 12\nvalue = [2, 10]"] ;
717 -> 718 ;
719 [label="X[103] <= 0.5\nentropy = 0.996\nsamples = 190\nvalue = [102, 88]"] ;
717 -> 719 ;
720 [label="entropy = 0.469\nsamples = 10\nvalue = [9, 1]"] ;
719 -> 720 ;
721 [label="X[1] <= 313350.0\nentropy = 0.999\nsamples = 180\nvalue = [93, 87]"] ;
719 -> 721 ;
722 [label="X[63] <= 0.5\nentropy = 1.0\nsamples = 169\nvalue = [84, 85]"] ;
721 -> 722 ;
723 [label="X[38] <= 0.5\nentropy = 0.999\nsamples = 155\nvalue = [81, 74]"] ;
722 -> 723 ;
724 [label="X[7] <= 0.5\nentropy = 0.999\nsamples = 137\nvalue = [66, 71]"] ;
723 -> 724 ;
725 [label="X[60] <= 0.5\nentropy = 0.999\nsamples = 119\nvalue = [62, 57]"] ;
724 -> 725 ;
726 [label="X[1] <= 210055.5\nentropy = 0.994\nsamples = 114\nvalue = [62, 52]"] ;
725 -> 726 ;
727 [label="entropy = 0.995\nsamples = 61\nvalue = [28, 33]"] ;
726 -> 727 ;
728 [label="entropy = 0.941\nsamples = 53\nvalue = [34, 19]"] ;
726 -> 728 ;
729 [label="entropy = 0.0\nsamples = 5\nvalue = [0, 5]"] ;
725 -> 729 ;
730 [label="entropy = 0.764\nsamples = 18\nvalue = [4, 14]"] ;
724 -> 730 ;
731 [label="entropy = 0.65\nsamples = 18\nvalue = [15, 3]"] ;
723 -> 731 ;
732 [label="entropy = 0.75\nsamples = 14\nvalue = [3, 11]"] ;
722 -> 732 ;
733 [label="entropy = 0.684\nsamples = 11\nvalue = [9, 2]"] ;
721 -> 733 ;
734 [label="entropy = 0.876\nsamples = 44\nvalue = [13, 31]"] ;
716 -> 734 ;
735 [label="entropy = 0.0\nsamples = 5\nvalue = [5, 0]"] ;
715 -> 735 ;
736 [label="X[5] <= 50.5\nentropy = 0.923\nsamples = 127\nvalue = [43, 84]"] ;
714 -> 736 ;
737 [label="entropy = 0.822\nsamples = 70\nvalue = [18, 52]"] ;
736 -> 737 ;
738 [label="entropy = 0.989\nsamples = 57\nvalue = [25, 32]"] ;
736 -> 738 ;
739 [label="entropy = 0.439\nsamples = 11\nvalue = [10, 1]"] ;
693 -> 739 ;
740 [label="entropy = 0.702\nsamples = 21\nvalue = [17, 4]"] ;
692 -> 740 ;
741 [label="entropy = 0.904\nsamples = 72\nvalue = [49, 23]"] ;
691 -> 741 ;
742 [label="entropy = 0.885\nsamples = 66\nvalue = [46, 20]"] ;
690 -> 742 ;
743 [label="entropy = 0.629\nsamples = 19\nvalue = [16, 3]"] ;
689 -> 743 ;
744 [label="entropy = 0.779\nsamples = 39\nvalue = [30, 9]"] ;
688 -> 744 ;
745 [label="entropy = 0.909\nsamples = 77\nvalue = [25, 52]"] ;
687 -> 745 ;
746 [label="X[1] <= 83303.5\nentropy = 0.96\nsamples = 369\nvalue = [141, 228]"] ;
560 -> 746 ;
747 [label="entropy = 0.98\nsamples = 60\nvalue = [35, 25]"] ;
746 -> 747 ;
748 [label="X[4] <= 1578.5\nentropy = 0.928\nsamples = 309\nvalue = [106, 203]"] ;
746 -> 748 ;
749 [label="X[21] <= 0.5\nentropy = 0.919\nsamples = 305\nvalue = [102, 203]"] ;
748 -> 749 ;
750 [label="X[5] <= 45.5\nentropy = 0.939\nsamples = 276\nvalue = [98, 178]"] ;
749 -> 750 ;
751 [label="X[0] <= 36.5\nentropy = 0.974\nsamples = 185\nvalue = [75, 110]"] ;
750 -> 751 ;
752 [label="entropy = 0.845\nsamples = 11\nvalue = [8, 3]"] ;
751 -> 752 ;
753 [label="X[1] <= 88863.5\nentropy = 0.962\nsamples = 174\nvalue = [67, 107]"] ;
751 -> 753 ;
754 [label="entropy = 0.0\nsamples = 3\nvalue = [0, 3]"] ;
753 -> 754 ;
755 [label="X[52] <= 0.5\nentropy = 0.966\nsamples = 171\nvalue = [67, 104]"] ;
753 -> 755 ;
756 [label="entropy = 0.811\nsamples = 24\nvalue = [6, 18]"] ;
755 -> 756 ;
757 [label="X[12] <= 0.5\nentropy = 0.979\nsamples = 147\nvalue = [61, 86]"] ;
755 -> 757 ;
758 [label="X[1] <= 95491.5\nentropy = 0.975\nsamples = 145\nvalue = [59, 86]"] ;
757 -> 758 ;
759 [label="entropy = 0.0\nsamples = 3\nvalue = [0, 3]"] ;
758 -> 759 ;
760 [label="X[1] <= 203203.0\nentropy = 0.979\nsamples = 142\nvalue = [59, 83]"] ;
758 -> 760 ;
761 [label="entropy = 0.998\nsamples = 85\nvalue = [40, 45]"] ;
760 -> 761 ;
762 [label="entropy = 0.918\nsamples = 57\nvalue = [19, 38]"] ;
760 -> 762 ;
763 [label="entropy = 0.0\nsamples = 2\nvalue = [2, 0]"] ;
757 -> 763 ;
764 [label="X[1] <= 220498.5\nentropy = 0.816\nsamples = 91\nvalue = [23, 68]"] ;
750 -> 764 ;
765 [label="entropy = 0.887\nsamples = 69\nvalue = [21, 48]"] ;
764 -> 765 ;
766 [label="entropy = 0.439\nsamples = 22\nvalue = [2, 20]"] ;
764 -> 766 ;
767 [label="entropy = 0.579\nsamples = 29\nvalue = [4, 25]"] ;
749 -> 767 ;
768 [label="entropy = 0.0\nsamples = 4\nvalue = [4, 0]"] ;
748 -> 768 ;
769 [label="X[3] <= 704.5\nentropy = 0.794\nsamples = 380\nvalue = [289, 91]"] ;
559 -> 769 ;
770 [label="X[1] <= 353260.0\nentropy = 0.816\nsamples = 352\nvalue = [263, 89]"] ;
769 -> 770 ;
771 [label="X[4] <= 1532.0\nentropy = 0.795\nsamples = 333\nvalue = [253, 80]"] ;
770 -> 771 ;
772 [label="X[4] <= 742.5\nentropy = 0.803\nsamples = 327\nvalue = [247, 80]"] ;
771 -> 772 ;
773 [label="X[65] <= 0.5\nentropy = 0.799\nsamples = 326\nvalue = [247, 79]"] ;
772 -> 773 ;
774 [label="X[70] <= 0.5\nentropy = 0.795\nsamples = 325\nvalue = [247, 78]"] ;
773 -> 774 ;
775 [label="X[61] <= 0.5\nentropy = 0.791\nsamples = 324\nvalue = [247, 77]"] ;
774 -> 775 ;
776 [label="X[64] <= 0.5\nentropy = 0.787\nsamples = 323\nvalue = [247, 76]"] ;
775 -> 776 ;
777 [label="entropy = 0.469\nsamples = 20\nvalue = [18, 2]"] ;
776 -> 777 ;
778 [label="X[38] <= 0.5\nentropy = 0.802\nsamples = 303\nvalue = [229, 74]"] ;
776 -> 778 ;
779 [label="X[0] <= 69.0\nentropy = 0.798\nsamples = 302\nvalue = [229, 73]"] ;
778 -> 779 ;
780 [label="X[69] <= 0.5\nentropy = 0.81\nsamples = 289\nvalue = [217, 72]"] ;
779 -> 780 ;
781 [label="X[41] <= 0.5\nentropy = 0.806\nsamples = 288\nvalue = [217, 71]"] ;
780 -> 781 ;
782 [label="X[1] <= 33344.0\nentropy = 0.769\nsamples = 231\nvalue = [179, 52]"] ;
781 -> 782 ;
783 [label="entropy = 0.323\nsamples = 17\nvalue = [16, 1]"] ;
782 -> 783 ;
784 [label="X[5] <= 71.0\nentropy = 0.792\nsamples = 214\nvalue = [163, 51]"] ;
782 -> 784 ;
785 [label="X[0] <= 43.5\nentropy = 0.761\nsamples = 195\nvalue = [152, 43]"] ;
784 -> 785 ;
786 [label="entropy = 0.585\nsamples = 57\nvalue = [49, 8]"] ;
785 -> 786 ;
787 [label="X[1] <= 76570.0\nentropy = 0.817\nsamples = 138\nvalue = [103, 35]"] ;
785 -> 787 ;
788 [label="entropy = 0.978\nsamples = 29\nvalue = [17, 12]"] ;
787 -> 788 ;
789 [label="X[42] <= 0.5\nentropy = 0.743\nsamples = 109\nvalue = [86, 23]"] ;
787 -> 789 ;
790 [label="entropy = 0.82\nsamples = 86\nvalue = [64, 22]"] ;
789 -> 790 ;
791 [label="entropy = 0.258\nsamples = 23\nvalue = [22, 1]"] ;
789 -> 791 ;
792 [label="entropy = 0.982\nsamples = 19\nvalue = [11, 8]"] ;
784 -> 792 ;
793 [label="entropy = 0.918\nsamples = 57\nvalue = [38, 19]"] ;
781 -> 793 ;
794 [label="entropy = 0.0\nsamples = 1\nvalue = [0, 1]"] ;
780 -> 794 ;
795 [label="entropy = 0.391\nsamples = 13\nvalue = [12, 1]"] ;
779 -> 795 ;
796 [label="entropy = 0.0\nsamples = 1\nvalue = [0, 1]"] ;
778 -> 796 ;
797 [label="entropy = 0.0\nsamples = 1\nvalue = [0, 1]"] ;
775 -> 797 ;
798 [label="entropy = 0.0\nsamples = 1\nvalue = [0, 1]"] ;
774 -> 798 ;
799 [label="entropy = 0.0\nsamples = 1\nvalue = [0, 1]"] ;
773 -> 799 ;
800 [label="entropy = 0.0\nsamples = 1\nvalue = [0, 1]"] ;
772 -> 800 ;
801 [label="entropy = 0.0\nsamples = 6\nvalue = [6, 0]"] ;
771 -> 801 ;
802 [label="entropy = 0.998\nsamples = 19\nvalue = [10, 9]"] ;
770 -> 802 ;
803 [label="entropy = 0.371\nsamples = 28\nvalue = [26, 2]"] ;
769 -> 803 ;
804 [label="X[4] <= 1989.5\nentropy = 0.729\nsamples = 177\nvalue = [36, 141]"] ;
532 -> 804 ;
805 [label="X[4] <= 1894.5\nentropy = 0.235\nsamples = 130\nvalue = [5, 125]"] ;
804 -> 805 ;
806 [label="entropy = 0.0\nsamples = 61\nvalue = [0, 61]"] ;
805 -> 806 ;
807 [label="entropy = 0.375\nsamples = 69\nvalue = [5, 64]"] ;
805 -> 807 ;
808 [label="entropy = 0.925\nsamples = 47\nvalue = [31, 16]"] ;
804 -> 808 ;
809 [label="X[4] <= 1794.0\nentropy = 0.918\nsamples = 2549\nvalue = [850, 1699]"] ;
319 -> 809 ;
810 [label="X[5] <= 32.5\nentropy = 0.949\nsamples = 2284\nvalue = [840, 1444]"] ;
809 -> 810 ;
811 [label="X[57] <= 0.5\nentropy = 0.945\nsamples = 193\nvalue = [123, 70]"] ;
810 -> 811 ;
812 [label="X[0] <= 30.5\nentropy = 0.876\nsamples = 142\nvalue = [100, 42]"] ;
811 -> 812 ;
813 [label="entropy = 0.0\nsamples = 17\nvalue = [17, 0]"] ;
812 -> 813 ;
814 [label="X[0] <= 67.5\nentropy = 0.921\nsamples = 125\nvalue = [83, 42]"] ;
812 -> 814 ;
815 [label="entropy = 0.976\nsamples = 88\nvalue = [52, 36]"] ;
814 -> 815 ;
816 [label="entropy = 0.639\nsamples = 37\nvalue = [31, 6]"] ;
814 -> 816 ;
817 [label="entropy = 0.993\nsamples = 51\nvalue = [23, 28]"] ;
811 -> 817 ;
818 [label="X[0] <= 36.5\nentropy = 0.928\nsamples = 2091\nvalue = [717, 1374]"] ;
810 -> 818 ;
819 [label="X[0] <= 25.5\nentropy = 0.991\nsamples = 632\nvalue = [281, 351]"] ;
818 -> 819 ;
820 [label="entropy = 0.855\nsamples = 50\nvalue = [36, 14]"] ;
819 -> 820 ;
821 [label="X[3] <= 4447.0\nentropy = 0.982\nsamples = 582\nvalue = [245, 337]"] ;
819 -> 821 ;
822 [label="X[40] <= 0.5\nentropy = 0.979\nsamples = 576\nvalue = [239, 337]"] ;
821 -> 822 ;
823 [label="X[4] <= 1532.0\nentropy = 0.972\nsamples = 553\nvalue = [222, 331]"] ;
822 -> 823 ;
824 [label="X[45] <= 0.5\nentropy = 0.969\nsamples = 548\nvalue = [217, 331]"] ;
823 -> 824 ;
825 [label="X[57] <= 0.5\nentropy = 0.964\nsamples = 540\nvalue = [210, 330]"] ;
824 -> 825 ;
826 [label="X[61] <= 0.5\nentropy = 0.977\nsamples = 462\nvalue = [190, 272]"] ;
825 -> 826 ;
827 [label="X[42] <= 0.5\nentropy = 0.974\nsamples = 457\nvalue = [185, 272]"] ;
826 -> 827 ;
828 [label="X[52] <= 0.5\nentropy = 0.97\nsamples = 450\nvalue = [179, 271]"] ;
827 -> 828 ;
829 [label="entropy = 0.65\nsamples = 6\nvalue = [5, 1]"] ;
828 -> 829 ;
830 [label="X[38] <= 0.5\nentropy = 0.966\nsamples = 444\nvalue = [174, 270]"] ;
828 -> 830 ;
831 [label="X[1] <= 30001.5\nentropy = 0.959\nsamples = 427\nvalue = [163, 264]"] ;
830 -> 831 ;
832 [label="entropy = 0.0\nsamples = 4\nvalue = [0, 4]"] ;
831 -> 832 ;
833 [label="X[1] <= 31852.0\nentropy = 0.962\nsamples = 423\nvalue = [163, 260]"] ;
831 -> 833 ;
834 [label="entropy = 0.0\nsamples = 4\nvalue = [4, 0]"] ;
833 -> 834 ;
835 [label="X[66] <= 0.5\nentropy = 0.958\nsamples = 419\nvalue = [159, 260]"] ;
833 -> 835 ;
836 [label="X[0] <= 32.5\nentropy = 0.956\nsamples = 417\nvalue = [157, 260]"] ;
835 -> 836 ;
837 [label="X[1] <= 36342.5\nentropy = 0.983\nsamples = 208\nvalue = [88, 120]"] ;
836 -> 837 ;
838 [label="entropy = 0.0\nsamples = 3\nvalue = [3, 0]"] ;
837 -> 838 ;
839 [label="X[10] <= 0.5\nentropy = 0.979\nsamples = 205\nvalue = [85, 120]"] ;
837 -> 839 ;
840 [label="X[1] <= 162320.5\nentropy = 0.985\nsamples = 196\nvalue = [84, 112]"] ;
839 -> 840 ;
841 [label="entropy = 0.927\nsamples = 79\nvalue = [27, 52]"] ;
840 -> 841 ;
842 [label="X[1] <= 168433.0\nentropy = 1.0\nsamples = 117\nvalue = [57, 60]"] ;
840 -> 842 ;
843 [label="entropy = 0.0\nsamples = 4\nvalue = [4, 0]"] ;
842 -> 843 ;
844 [label="X[60] <= 0.5\nentropy = 0.997\nsamples = 113\nvalue = [53, 60]"] ;
842 -> 844 ;
845 [label="X[3] <= 3505.5\nentropy = 0.999\nsamples = 109\nvalue = [53, 56]"] ;
844 -> 845 ;
846 [label="X[5] <= 56.5\nentropy = 0.998\nsamples = 107\nvalue = [51, 56]"] ;
845 -> 846 ;
847 [label="X[5] <= 46.5\nentropy = 1.0\nsamples = 94\nvalue = [47, 47]"] ;
846 -> 847 ;
848 [label="entropy = 0.992\nsamples = 67\nvalue = [30, 37]"] ;
847 -> 848 ;
849 [label="entropy = 0.951\nsamples = 27\nvalue = [17, 10]"] ;
847 -> 849 ;
850 [label="entropy = 0.89\nsamples = 13\nvalue = [4, 9]"] ;
846 -> 850 ;
851 [label="entropy = 0.0\nsamples = 2\nvalue = [2, 0]"] ;
845 -> 851 ;
852 [label="entropy = 0.0\nsamples = 4\nvalue = [0, 4]"] ;
844 -> 852 ;
853 [label="entropy = 0.503\nsamples = 9\nvalue = [1, 8]"] ;
839 -> 853 ;
854 [label="X[67] <= 0.5\nentropy = 0.915\nsamples = 209\nvalue = [69, 140]"] ;
836 -> 854 ;
855 [label="X[3] <= 1551.5\nentropy = 0.908\nsamples = 207\nvalue = [67, 140]"] ;
854 -> 855 ;
856 [label="X[51] <= 0.5\nentropy = 0.917\nsamples = 202\nvalue = [67, 135]"] ;
855 -> 856 ;
857 [label="X[87] <= 0.5\nentropy = 0.908\nsamples = 198\nvalue = [64, 134]"] ;
856 -> 857 ;
858 [label="X[44] <= 0.5\nentropy = 0.904\nsamples = 197\nvalue = [63, 134]"] ;
857 -> 858 ;
859 [label="X[43] <= 0.5\nentropy = 0.9\nsamples = 196\nvalue = [62, 134]"] ;
858 -> 859 ;
860 [label="X[12] <= 0.5\nentropy = 0.896\nsamples = 195\nvalue = [61, 134]"] ;
859 -> 860 ;
861 [label="X[99] <= 0.5\nentropy = 0.883\nsamples = 186\nvalue = [56, 130]"] ;
860 -> 861 ;
862 [label="X[37] <= 0.5\nentropy = 0.878\nsamples = 185\nvalue = [55, 130]"] ;
861 -> 862 ;
863 [label="X[74] <= 0.5\nentropy = 0.873\nsamples = 184\nvalue = [54, 130]"] ;
862 -> 863 ;
864 [label="X[23] <= 0.5\nentropy = 0.868\nsamples = 183\nvalue = [53, 130]"] ;
863 -> 864 ;
865 [label="entropy = 0.754\nsamples = 60\nvalue = [13, 47]"] ;
864 -> 865 ;
866 [label="X[9] <= 0.5\nentropy = 0.91\nsamples = 123\nvalue = [40, 83]"] ;
864 -> 866 ;
867 [label="entropy = 0.999\nsamples = 25\nvalue = [13, 12]"] ;
866 -> 867 ;
868 [label="X[1] <= 230871.0\nentropy = 0.849\nsamples = 98\nvalue = [27, 71]"] ;
866 -> 868 ;
869 [label="entropy = 0.738\nsamples = 72\nvalue = [15, 57]"] ;
868 -> 869 ;
870 [label="entropy = 0.996\nsamples = 26\nvalue = [12, 14]"] ;
868 -> 870 ;
871 [label="entropy = 0.0\nsamples = 1\nvalue = [1, 0]"] ;
863 -> 871 ;
872 [label="entropy = 0.0\nsamples = 1\nvalue = [1, 0]"] ;
862 -> 872 ;
873 [label="entropy = 0.0\nsamples = 1\nvalue = [1, 0]"] ;
861 -> 873 ;
874 [label="entropy = 0.991\nsamples = 9\nvalue = [5, 4]"] ;
860 -> 874 ;
875 [label="entropy = 0.0\nsamples = 1\nvalue = [1, 0]"] ;
859 -> 875 ;
876 [label="entropy = 0.0\nsamples = 1\nvalue = [1, 0]"] ;
858 -> 876 ;
877 [label="entropy = 0.0\nsamples = 1\nvalue = [1, 0]"] ;
857 -> 877 ;
878 [label="entropy = 0.811\nsamples = 4\nvalue = [3, 1]"] ;
856 -> 878 ;
879 [label="entropy = 0.0\nsamples = 5\nvalue = [0, 5]"] ;
855 -> 879 ;
880 [label="entropy = 0.0\nsamples = 2\nvalue = [2, 0]"] ;
854 -> 880 ;
881 [label="entropy = 0.0\nsamples = 2\nvalue = [2, 0]"] ;
835 -> 881 ;
882 [label="entropy = 0.937\nsamples = 17\nvalue = [11, 6]"] ;
830 -> 882 ;
883 [label="entropy = 0.592\nsamples = 7\nvalue = [6, 1]"] ;
827 -> 883 ;
884 [label="entropy = 0.0\nsamples = 5\nvalue = [5, 0]"] ;
826 -> 884 ;
885 [label="entropy = 0.821\nsamples = 78\nvalue = [20, 58]"] ;
825 -> 885 ;
886 [label="entropy = 0.544\nsamples = 8\nvalue = [7, 1]"] ;
824 -> 886 ;
887 [label="entropy = 0.0\nsamples = 5\nvalue = [5, 0]"] ;
823 -> 887 ;
888 [label="entropy = 0.828\nsamples = 23\nvalue = [17, 6]"] ;
822 -> 888 ;
889 [label="entropy = 0.0\nsamples = 6\nvalue = [6, 0]"] ;
821 -> 889 ;
890 [label="X[2] <= 13.5\nentropy = 0.88\nsamples = 1459\nvalue = [436, 1023]"] ;
818 -> 890 ;
891 [label="X[11] <= 0.5\nentropy = 0.937\nsamples = 867\nvalue = [306, 561]"] ;
890 -> 891 ;
892 [label="X[3] <= 3120.0\nentropy = 0.912\nsamples = 777\nvalue = [254, 523]"] ;
891 -> 892 ;
893 [label="X[41] <= 0.5\nentropy = 0.899\nsamples = 759\nvalue = [239, 520]"] ;
892 -> 893 ;
894 [label="X[45] <= 0.5\nentropy = 0.941\nsamples = 520\nvalue = [186, 334]"] ;
893 -> 894 ;
895 [label="X[0] <= 59.5\nentropy = 0.932\nsamples = 509\nvalue = [177, 332]"] ;
894 -> 895 ;
896 [label="X[67] <= 0.5\nentropy = 0.913\nsamples = 466\nvalue = [153, 313]"] ;
895 -> 896 ;
897 [label="X[1] <= 115049.5\nentropy = 0.909\nsamples = 463\nvalue = [150, 313]"] ;
896 -> 897 ;
898 [label="X[103] <= 0.5\nentropy = 0.981\nsamples = 122\nvalue = [51, 71]"] ;
897 -> 898 ;
899 [label="entropy = 0.0\nsamples = 7\nvalue = [0, 7]"] ;
898 -> 899 ;
900 [label="X[38] <= 0.5\nentropy = 0.991\nsamples = 115\nvalue = [51, 64]"] ;
898 -> 900 ;
901 [label="X[47] <= 0.5\nentropy = 0.997\nsamples = 109\nvalue = [51, 58]"] ;
900 -> 901 ;
902 [label="entropy = 0.981\nsamples = 55\nvalue = [32, 23]"] ;
901 -> 902 ;
903 [label="entropy = 0.936\nsamples = 54\nvalue = [19, 35]"] ;
901 -> 903 ;
904 [label="entropy = 0.0\nsamples = 6\nvalue = [0, 6]"] ;
900 -> 904 ;
905 [label="X[1] <= 150460.5\nentropy = 0.869\nsamples = 341\nvalue = [99, 242]"] ;
897 -> 905 ;
906 [label="entropy = 0.629\nsamples = 57\nvalue = [9, 48]"] ;
905 -> 906 ;
907 [label="X[48] <= 0.5\nentropy = 0.901\nsamples = 284\nvalue = [90, 194]"] ;
905 -> 907 ;
908 [label="X[54] <= 0.5\nentropy = 0.915\nsamples = 270\nvalue = [89, 181]"] ;
907 -> 908 ;
909 [label="X[3] <= 1551.5\nentropy = 0.909\nsamples = 268\nvalue = [87, 181]"] ;
908 -> 909 ;
910 [label="X[40] <= 0.5\nentropy = 0.916\nsamples = 263\nvalue = [87, 176]"] ;
909 -> 910 ;
911 [label="X[43] <= 0.5\nentropy = 0.897\nsamples = 236\nvalue = [74, 162]"] ;
910 -> 911 ;
912 [label="X[103] <= 0.5\nentropy = 0.887\nsamples = 230\nvalue = [70, 160]"] ;
911 -> 912 ;
913 [label="entropy = 0.985\nsamples = 14\nvalue = [8, 6]"] ;
912 -> 913 ;
914 [label="X[51] <= 0.5\nentropy = 0.865\nsamples = 216\nvalue = [62, 154]"] ;
912 -> 914 ;
915 [label="X[44] <= 0.5\nentropy = 0.844\nsamples = 206\nvalue = [56, 150]"] ;
914 -> 915 ;
916 [label="X[5] <= 47.5\nentropy = 0.827\nsamples = 200\nvalue = [52, 148]"] ;
915 -> 916 ;
917 [label="X[1] <= 351067.5\nentropy = 0.732\nsamples = 122\nvalue = [25, 97]"] ;
916 -> 917 ;
918 [label="X[0] <= 52.5\nentropy = 0.654\nsamples = 107\nvalue = [18, 89]"] ;
917 -> 918 ;
919 [label="X[1] <= 201089.0\nentropy = 0.718\nsamples = 91\nvalue = [18, 73]"] ;
918 -> 919 ;
920 [label="entropy = 0.854\nsamples = 43\nvalue = [12, 31]"] ;
919 -> 920 ;
921 [label="entropy = 0.544\nsamples = 48\nvalue = [6, 42]"] ;
919 -> 921 ;
922 [label="entropy = 0.0\nsamples = 16\nvalue = [0, 16]"] ;
918 -> 922 ;
923 [label="entropy = 0.997\nsamples = 15\nvalue = [7, 8]"] ;
917 -> 923 ;
924 [label="entropy = 0.931\nsamples = 78\nvalue = [27, 51]"] ;
916 -> 924 ;
925 [label="entropy = 0.918\nsamples = 6\nvalue = [4, 2]"] ;
915 -> 925 ;
926 [label="entropy = 0.971\nsamples = 10\nvalue = [6, 4]"] ;
914 -> 926 ;
927 [label="entropy = 0.918\nsamples = 6\nvalue = [4, 2]"] ;
911 -> 927 ;
928 [label="entropy = 0.999\nsamples = 27\nvalue = [13, 14]"] ;
910 -> 928 ;
929 [label="entropy = 0.0\nsamples = 5\nvalue = [0, 5]"] ;
909 -> 929 ;
930 [label="entropy = 0.0\nsamples = 2\nvalue = [2, 0]"] ;
908 -> 930 ;
931 [label="entropy = 0.371\nsamples = 14\nvalue = [1, 13]"] ;
907 -> 931 ;
932 [label="entropy = 0.0\nsamples = 3\nvalue = [3, 0]"] ;
896 -> 932 ;
933 [label="entropy = 0.99\nsamples = 43\nvalue = [24, 19]"] ;
895 -> 933 ;
934 [label="entropy = 0.684\nsamples = 11\nvalue = [9, 2]"] ;
894 -> 934 ;
935 [label="X[4] <= 742.5\nentropy = 0.763\nsamples = 239\nvalue = [53, 186]"] ;
893 -> 935 ;
936 [label="X[5] <= 62.5\nentropy = 0.745\nsamples = 236\nvalue = [50, 186]"] ;
935 -> 936 ;
937 [label="X[5] <= 43.5\nentropy = 0.717\nsamples = 228\nvalue = [45, 183]"] ;
936 -> 937 ;
938 [label="X[1] <= 97298.5\nentropy = 0.832\nsamples = 110\nvalue = [29, 81]"] ;
937 -> 938 ;
939 [label="entropy = 0.989\nsamples = 16\nvalue = [9, 7]"] ;
938 -> 939 ;
940 [label="X[1] <= 179565.0\nentropy = 0.747\nsamples = 94\nvalue = [20, 74]"] ;
938 -> 940 ;
941 [label="entropy = 0.439\nsamples = 44\nvalue = [4, 40]"] ;
940 -> 941 ;
942 [label="entropy = 0.904\nsamples = 50\nvalue = [16, 34]"] ;
940 -> 942 ;
943 [label="X[0] <= 77.5\nentropy = 0.573\nsamples = 118\nvalue = [16, 102]"] ;
937 -> 943 ;
944 [label="X[9] <= 0.5\nentropy = 0.552\nsamples = 117\nvalue = [15, 102]"] ;
943 -> 944 ;
945 [label="entropy = 0.797\nsamples = 29\nvalue = [7, 22]"] ;
944 -> 945 ;
946 [label="entropy = 0.439\nsamples = 88\nvalue = [8, 80]"] ;
944 -> 946 ;
947 [label="entropy = 0.0\nsamples = 1\nvalue = [1, 0]"] ;
943 -> 947 ;
948 [label="entropy = 0.954\nsamples = 8\nvalue = [5, 3]"] ;
936 -> 948 ;
949 [label="entropy = 0.0\nsamples = 3\nvalue = [3, 0]"] ;
935 -> 949 ;
950 [label="entropy = 0.65\nsamples = 18\nvalue = [15, 3]"] ;
892 -> 950 ;
951 [label="X[5] <= 76.0\nentropy = 0.982\nsamples = 90\nvalue = [52, 38]"] ;
891 -> 951 ;
952 [label="entropy = 0.993\nsamples = 84\nvalue = [46, 38]"] ;
951 -> 952 ;
953 [label="entropy = 0.0\nsamples = 6\nvalue = [6, 0]"] ;
951 -> 953 ;
954 [label="X[0] <= 57.5\nentropy = 0.759\nsamples = 592\nvalue = [130, 462]"] ;
890 -> 954 ;
955 [label="X[44] <= 0.5\nentropy = 0.713\nsamples = 506\nvalue = [99, 407]"] ;
954 -> 955 ;
956 [label="X[45] <= 0.5\nentropy = 0.707\nsamples = 504\nvalue = [97, 407]"] ;
955 -> 956 ;
957 [label="X[38] <= 0.5\nentropy = 0.7\nsamples = 502\nvalue = [95, 407]"] ;
956 -> 957 ;
958 [label="X[1] <= 156553.5\nentropy = 0.677\nsamples = 481\nvalue = [86, 395]"] ;
957 -> 958 ;
959 [label="X[1] <= 148785.5\nentropy = 0.569\nsamples = 216\nvalue = [29, 187]"] ;
958 -> 959 ;
960 [label="X[1] <= 147920.5\nentropy = 0.597\nsamples = 200\nvalue = [29, 171]"] ;
959 -> 960 ;
961 [label="X[5] <= 39.0\nentropy = 0.586\nsamples = 199\nvalue = [28, 171]"] ;
960 -> 961 ;
962 [label="entropy = 0.0\nsamples = 16\nvalue = [0, 16]"] ;
961 -> 962 ;
963 [label="X[58] <= 0.5\nentropy = 0.617\nsamples = 183\nvalue = [28, 155]"] ;
961 -> 963 ;
964 [label="X[11] <= 0.5\nentropy = 0.606\nsamples = 182\nvalue = [27, 155]"] ;
963 -> 964 ;
965 [label="X[7] <= 0.5\nentropy = 0.554\nsamples = 163\nvalue = [21, 142]"] ;
964 -> 965 ;
966 [label="X[12] <= 0.5\nentropy = 0.481\nsamples = 135\nvalue = [14, 121]"] ;
965 -> 966 ;
967 [label="X[60] <= 0.5\nentropy = 0.401\nsamples = 113\nvalue = [9, 104]"] ;
966 -> 967 ;
968 [label="X[0] <= 40.5\nentropy = 0.374\nsamples = 111\nvalue = [8, 103]"] ;
967 -> 968 ;
969 [label="entropy = 0.0\nsamples = 27\nvalue = [0, 27]"] ;
968 -> 969 ;
970 [label="entropy = 0.454\nsamples = 84\nvalue = [8, 76]"] ;
968 -> 970 ;
971 [label="entropy = 1.0\nsamples = 2\nvalue = [1, 1]"] ;
967 -> 971 ;
972 [label="entropy = 0.773\nsamples = 22\nvalue = [5, 17]"] ;
966 -> 972 ;
973 [label="entropy = 0.811\nsamples = 28\nvalue = [7, 21]"] ;
965 -> 973 ;
974 [label="entropy = 0.9\nsamples = 19\nvalue = [6, 13]"] ;
964 -> 974 ;
975 [label="entropy = 0.0\nsamples = 1\nvalue = [1, 0]"] ;
963 -> 975 ;
976 [label="entropy = 0.0\nsamples = 1\nvalue = [1, 0]"] ;
960 -> 976 ;
977 [label="entropy = 0.0\nsamples = 16\nvalue = [0, 16]"] ;
959 -> 977 ;
978 [label="X[1] <= 180468.0\nentropy = 0.751\nsamples = 265\nvalue = [57, 208]"] ;
958 -> 978 ;
979 [label="entropy = 0.938\nsamples = 62\nvalue = [22, 40]"] ;
978 -> 979 ;
980 [label="X[1] <= 187449.5\nentropy = 0.663\nsamples = 203\nvalue = [35, 168]"] ;
978 -> 980 ;
981 [label="entropy = 0.0\nsamples = 17\nvalue = [0, 17]"] ;
980 -> 981 ;
982 [label="X[49] <= 0.5\nentropy = 0.698\nsamples = 186\nvalue = [35, 151]"] ;
980 -> 982 ;
983 [label="X[1] <= 356548.0\nentropy = 0.645\nsamples = 170\nvalue = [28, 142]"] ;
982 -> 983 ;
984 [label="X[1] <= 240099.0\nentropy = 0.684\nsamples = 154\nvalue = [28, 126]"] ;
983 -> 984 ;
985 [label="entropy = 0.481\nsamples = 77\nvalue = [8, 69]"] ;
984 -> 985 ;
986 [label="entropy = 0.826\nsamples = 77\nvalue = [20, 57]"] ;
984 -> 986 ;
987 [label="entropy = 0.0\nsamples = 16\nvalue = [0, 16]"] ;
983 -> 987 ;
988 [label="entropy = 0.989\nsamples = 16\nvalue = [7, 9]"] ;
982 -> 988 ;
989 [label="entropy = 0.985\nsamples = 21\nvalue = [9, 12]"] ;
957 -> 989 ;
990 [label="entropy = 0.0\nsamples = 2\nvalue = [2, 0]"] ;
956 -> 990 ;
991 [label="entropy = 0.0\nsamples = 2\nvalue = [2, 0]"] ;
955 -> 991 ;
992 [label="entropy = 0.943\nsamples = 86\nvalue = [31, 55]"] ;
954 -> 992 ;
993 [label="X[4] <= 1989.5\nentropy = 0.232\nsamples = 265\nvalue = [10, 255]"] ;
809 -> 993 ;
994 [label="X[0] <= 28.5\nentropy = 0.076\nsamples = 217\nvalue = [2, 215]"] ;
993 -> 994 ;
995 [label="entropy = 0.592\nsamples = 7\nvalue = [1, 6]"] ;
994 -> 995 ;
996 [label="X[6] <= 0.5\nentropy = 0.044\nsamples = 210\nvalue = [1, 209]"] ;
994 -> 996 ;
997 [label="entropy = 0.0\nsamples = 199\nvalue = [0, 199]"] ;
996 -> 997 ;
998 [label="entropy = 0.439\nsamples = 11\nvalue = [1, 10]"] ;
996 -> 998 ;
999 [label="entropy = 0.65\nsamples = 48\nvalue = [8, 40]"] ;
993 -> 999 ;
1000 [label="X[0] <= 61.5\nentropy = 0.096\nsamples = 808\nvalue = [10, 798]"] ;
318 -> 1000 ;
1001 [label="entropy = 0.0\nsamples = 723\nvalue = [0, 723]"] ;
1000 -> 1001 ;
1002 [label="entropy = 0.523\nsamples = 85\nvalue = [10, 75]"] ;
1000 -> 1002 ;
}